{"learner":{"attributes":{"scikit_learn":"{\"_estimator_type\": \"classifier\"}"},"feature_names":[],"feature_types":[],"gradient_booster":{"model":{"gbtree_model_param":{"num_parallel_tree":"1","num_trees":"300"},"iteration_indptr":[0,3,6,9,12,15,18,21,24,27,30,33,36,39,42,45,48,51,54,57,60,63,66,69,72,75,78,81,84,87,90,93,96,99,102,105,108,111,114,117,120,123,126,129,132,135,138,141,144,147,150,153,156,159,162,165,168,171,174,177,180,183,186,189,192,195,198,201,204,207,210,213,216,219,222,225,228,231,234,237,240,243,246,249,252,255,258,261,264,267,270,273,276,279,282,285,288,291,294,297,300],"tree_info":[0,1,2,0,1,2,0,1,2,0,1,2,0,1,2,0,1,2,0,1,2,0,1,2,0,1,2,0,1,2,0,1,2,0,1,2,0,1,2,0,1,2,0,1,2,0,1,2,0,1,2,0,1,2,0,1,2,0,1,2,0,1,2,0,1,2,0,1,2,0,1,2,0,1,2,0,1,2,0,1,2,0,1,2,0,1,2,0,1,2,0,1,2,0,1,2,0,1,2,0,1,2,0,1,2,0,1,2,0,1,2,0,1,2,0,1,2,0,1,2,0,1,2,0,1,2,0,1,2,0,1,2,0,1,2,0,1,2,0,1,2,0,1,2,0,1,2,0,1,2,0,1,2,0,1,2,0,1,2,0,1,2,0,1,2,0,1,2,0,1,2,0,1,2,0,1,2,0,1,2,0,1,2,0,1,2,0,1,2,0,1,2,0,1,2,0,1,2,0,1,2,0,1,2,0,1,2,0,1,2,0,1,2,0,1,2,0,1,2,0,1,2,0,1,2,0,1,2,0,1,2,0,1,2,0,1,2,0,1,2,0,1,2,0,1,2,0,1,2,0,1,2,0,1,2,0,1,2,0,1,2,0,1,2,0,1,2,0,1,2,0,1,2,0,1,2,0,1,2,0,1,2,0,1,2,0,1,2,0,1,2,0,1,2,0,1,2,0,1,2],"trees":[{"base_weights":[-4.4042842E-8,4.30622E-1,-2.2004892E-1],"categories":[],"categories_nodes":[],"categories_segments":[],"categories_sizes":[],"default_left":[0,0,0],"id":0,"left_children":[1,-1,-1],"loss_changes":[7.229677E1,0E0,0E0],"parents":[2147483647,0,0],"right_children":[2,-1,-1],"split_conditions":[3E0,4.30622E-1,-2.2004892E-1],"split_indices":[2,0,0],"split_type":[0,0,0],"sum_hessian":[6.6666664E1,2.2222221E1,4.4444443E1],"tree_param":{"num_deleted":"0","num_feature":"4","num_nodes":"3","size_leaf_vector":"1"}},{"base_weights":[-4.4042842E-8,-2.1531104E-1,3.6674812E-1,1.24E0,-6.6839385E-1,1.3880597E0,-3.2511625E-8,-7.663455E-9,-2.1381217E-1,4.2857146E-1,1.2857142E-1,-1.2857145E-1,1.2857142E-1],"categories":[],"categories_nodes":[],"categories_segments":[],"categories_sizes":[],"default_left":[0,0,0,0,0,0,0,0,0,0,0,0,0],"id":1,"left_children":[1,-1,3,5,7,9,11,-1,-1,-1,-1,-1,-1],"loss_changes":[1.8074192E1,0E0,4.190784E1,4.5898476E0,6.351576E-1,2.558632E-1,8.5714287E-1,0E0,0E0,0E0,0E0,0E0,0E0],"parents":[2147483647,0,0,2,2,3,3,4,4,5,5,6,6],"right_children":[2,-1,4,6,8,10,12,-1,-1,-1,-1,-1,-1],"split_conditions":[3E0,-2.1531104E-1,1.8E0,5E0,4.9E0,1.6E0,1.6E0,-7.663455E-9,-2.1381217E-1,4.2857146E-1,1.2857142E-1,-1.2857145E-1,1.2857142E-1],"split_indices":[2,0,3,2,2,3,3,0,0,0,0,0,0],"split_type":[0,0,0,0,0,0,0,0,0,0,0,0,0],"sum_hessian":[6.6666664E1,2.2222221E1,4.4444443E1,2.3999998E1,2.0444443E1,2.1333332E1,2.6666665E0,1.3333333E0,1.911111E1,1.9999998E1,1.3333333E0,1.3333333E0,1.3333333E0],"tree_param":{"num_deleted":"0","num_feature":"4","num_nodes":"13","size_leaf_vector":"1"}},{"base_weights":[-4.4042842E-8,-6.474821E-1,4.0298507E-1,-2.1989927E-1,2.1724138E-1],"categories":[],"categories_nodes":[],"categories_segments":[],"categories_sizes":[],"default_left":[0,0,0,0,0],"id":2,"left_children":[1,3,-1,-1,-1],"loss_changes":[5.9722965E1,5.9654484E0,0E0,0E0,0E0],"parents":[2147483647,0,0,1,1],"right_children":[2,4,-1,-1,-1],"split_conditions":[1.7E0,5E0,4.0298507E-1,-2.1989927E-1,2.1724138E-1],"split_indices":[3,2,0,0,0],"split_type":[0,0,0,0,0],"sum_hessian":[6.6666664E1,4.5333332E1,2.1333332E1,4.3111107E1,2.222222E0],"tree_param":{"num_deleted":"0","num_feature":"4","num_nodes":"5","size_leaf_vector":"1"}},{"base_weights":[-2.4456056E-3,2.9508278E-1,-1.9683747E-1],"categories":[],"categories_nodes":[],"categories_segments":[],"categories_sizes":[],"default_left":[0,0,0],"id":3,"left_children":[1,-1,-1],"loss_changes":[4.2016575E1,0E0,0E0],"parents":[2147483647,0,0],"right_children":[2,-1,-1],"split_conditions":[3E0,2.9508278E-1,-1.9683747E-1],"split_indices":[2,0,0],"split_type":[0,0,0],"sum_hessian":[6.3184826E1,2.4987392E1,3.8197433E1],"tree_param":{"num_deleted":"0","num_feature":"4","num_nodes":"3","size_leaf_vector":"1"}},{"base_weights":[-6.3496394E-5,-1.9161221E-1,2.824561E-1,8.680481E-1,-5.8938694E-1,2.872154E-1,1.4427034E-2,1.1982666E-2,-1.9113852E-1,-1.1965539E-1,1.21238194E-1],"categories":[],"categories_nodes":[],"categories_segments":[],"categories_sizes":[],"default_left":[0,0,0,0,0,0,0,0,0,0,0],"id":4,"left_children":[1,-1,3,5,7,-1,9,-1,-1,-1,-1],"loss_changes":[1.17989855E1,0E0,2.3658592E1,2.0852833E0,5.906615E-1,0E0,7.4470496E-1,0E0,0E0,0E0,0E0],"parents":[2147483647,0,0,2,2,3,3,4,4,6,6],"right_children":[2,-1,4,6,8,-1,10,-1,-1,-1,-1],"split_conditions":[3E0,-1.9161221E-1,1.8E0,5E0,4.9E0,2.872154E-1,1.6E0,1.1982666E-2,-1.9113852E-1,-1.1965539E-1,1.21238194E-1],"split_indices":[2,0,3,2,2,0,3,0,0,0,0],"split_type":[0,0,0,0,0,0,0,0,0,0,0],"sum_hessian":[6.339404E1,1.9056194E1,4.4337845E1,2.6525667E1,1.7812176E1,2.3902561E1,2.6231065E0,1.2674859E0,1.654469E1,1.2616454E0,1.3614612E0],"tree_param":{"num_deleted":"0","num_feature":"4","num_nodes":"11","size_leaf_vector":"1"}},{"base_weights":[2.5044852E-3,-6.302032E-1,8.4499955E-1,-1.958218E-1,-2.693671E-3,1.4689633E-1,9.569209E-1,-1.0741262E-1,3.8590077E-1,7.71064E-2,2.9754013E-1,2.0987163E-1,-2.6571559E-2],"categories":[],"categories_nodes":[],"categories_segments":[],"categories_sizes":[],"default_left":[0,0,0,0,0,0,0,0,0,0,0,0,0],"id":5,"left_children":[1,3,5,-1,-1,7,9,-1,11,-1,-1,-1,-1],"loss_changes":[3.4813507E1,5.163517E-1,2.0479069E0,0E0,0E0,7.477917E-1,3.2995796E-1,0E0,6.4386195E-1,0E0,0E0,0E0,0E0],"parents":[2147483647,0,0,1,1,2,2,5,5,6,6,8,8],"right_children":[2,4,6,-1,-1,8,10,-1,12,-1,-1,-1,-1],"split_conditions":[4.8E0,1.6E0,1.8E0,-1.958218E-1,-2.693671E-3,5E0,4.9E0,-1.0741262E-1,1.6E0,7.71064E-2,2.9754013E-1,2.0987163E-1,-2.6571559E-2],"split_indices":[2,3,3,0,0,2,2,0,3,0,0,0,0],"split_type":[0,0,0,0,0,0,0,0,0,0,0,0,0],"sum_hessian":[6.331064E1,3.6300903E1,2.7009733E1,3.4981163E1,1.3197403E0,4.0514607E0,2.2958273E1,1.1415924E0,2.9098682E0,1.4870764E0,2.1471197E1,1.4661707E0,1.4436977E0],"tree_param":{"num_deleted":"0","num_feature":"4","num_nodes":"13","size_leaf_vector":"1"}},{"base_weights":[-4.3828203E-3,2.3630679E-1,-1.813366E-1],"categories":[],"categories_nodes":[],"categories_segments":[],"categories_sizes":[],"default_left":[0,0,0],"id":6,"left_children":[1,-1,-1],"loss_changes":[2.7352558E1,0E0,0E0],"parents":[2147483647,0,0],"right_children":[2,-1,-1],"split_conditions":[3E0,2.3630679E-1,-1.813366E-1],"split_indices":[2,0,0],"split_type":[0,0,0],"sum_hessian":[5.5546177E1,2.3807955E1,3.1738222E1],"tree_param":{"num_deleted":"0","num_feature":"4","num_nodes":"3","size_leaf_vector":"1"}},{"base_weights":[-1.0701071E-3,-1.7550403E-1,2.3461986E-1,6.879058E-1,-5.3110415E-1,7.498377E-1,-3.715564E-2,1.0061415E-2,-1.7470442E-1,7.849173E-2,7.7924967E-1,6.684185E-2,2.4105743E-1],"categories":[],"categories_nodes":[],"categories_segments":[],"categories_sizes":[],"default_left":[0,0,0,0,0,0,0,0,0,0,0,0,0],"id":7,"left_children":[1,-1,3,5,7,9,-1,-1,-1,-1,11,-1,-1],"loss_changes":[8.0289755E0,0E0,1.479241E1,1.427392E0,4.8307228E-1,1.5229511E-1,0E0,0E0,0E0,0E0,1.301651E-1,0E0,0E0],"parents":[2147483647,0,0,2,2,3,3,4,4,5,5,10,10],"right_children":[2,-1,4,6,8,10,-1,-1,-1,-1,12,-1,-1],"split_conditions":[3E0,-1.7550403E-1,1.8E0,5.1E0,4.9E0,5.1E0,-3.715564E-2,1.0061415E-2,-1.7470442E-1,7.849173E-2,2.3E0,6.684185E-2,2.4105743E-1],"split_indices":[2,0,3,2,2,0,0,0,0,0,1,0,0],"split_type":[0,0,0,0,0,0,0,0,0,0,0,0,0],"sum_hessian":[5.634029E1,1.5774759E1,4.056553E1,2.5545172E1,1.5020359E1,2.3805264E1,1.7399087E0,1.2784963E0,1.3741862E1,1.9149753E0,2.1890287E1,1.340527E0,2.054976E1],"tree_param":{"num_deleted":"0","num_feature":"4","num_nodes":"13","size_leaf_vector":"1"}},{"base_weights":[5.405538E-3,-5.743428E-1,6.7432785E-1,-1.8016554E-1,7.2648847E-3,1.2682354E-1,7.620653E-1,-5.7822764E-2,1.2233818E-1,6.301815E-2,2.372044E-1],"categories":[],"categories_nodes":[],"categories_segments":[],"categories_sizes":[],"default_left":[0,0,0,0,0,0,0,0,0,0,0],"id":8,"left_children":[1,3,5,-1,-1,7,9,-1,-1,-1,-1],"loss_changes":[2.2569506E1,5.0371647E-1,1.2011633E0,0E0,0E0,5.21361E-1,1.9857788E-1,0E0,0E0,0E0,0E0],"parents":[2147483647,0,0,1,1,2,2,5,5,6,6],"right_children":[2,4,6,-1,-1,8,10,-1,-1,-1,-1],"split_conditions":[4.8E0,1.6E0,1.8E0,-1.8016554E-1,7.2648847E-3,5.1E0,4.9E0,-5.7822764E-2,1.2233818E-1,6.301815E-2,2.372044E-1],"split_indices":[2,3,3,0,0,2,2,0,0,0,0],"split_type":[0,0,0,0,0,0,0,0,0,0,0],"sum_hessian":[5.619916E1,3.018206E1,2.6017101E1,2.8912733E1,1.2693264E0,3.931157E0,2.2085943E1,1.9861685E0,1.9449885E0,1.4995812E0,2.0586363E1],"tree_param":{"num_deleted":"0","num_feature":"4","num_nodes":"11","size_leaf_vector":"1"}},{"base_weights":[-7.5880764E-3,2.0385234E-1,-1.7049491E-1],"categories":[],"categories_nodes":[],"categories_segments":[],"categories_sizes":[],"default_left":[0,0,0],"id":9,"left_children":[1,-1,-1],"loss_changes":[1.87806E1,0E0,0E0],"parents":[2147483647,0,0],"right_children":[2,-1,-1],"split_conditions":[3E0,2.0385234E-1,-1.7049491E-1],"split_indices":[2,0,0],"split_type":[0,0,0],"sum_hessian":[4.674374E1,2.0909803E1,2.5833937E1],"tree_param":{"num_deleted":"0","num_feature":"4","num_nodes":"3","size_leaf_vector":"1"}},{"base_weights":[-5.1933393E-4,-1.6360562E-1,2.0472233E-1,5.80741E-1,-4.846366E-1,6.530131E-1,-9.311181E-3,9.034463E-3,-1.6247705E-1,2.0451863E-1,4.6483487E-2,-1.0969331E-1,9.2642024E-2],"categories":[],"categories_nodes":[],"categories_segments":[],"categories_sizes":[],"default_left":[0,0,0,0,0,0,0,0,0,0,0,0,0],"id":10,"left_children":[1,-1,3,5,7,9,11,-1,-1,-1,-1,-1,-1],"loss_changes":[5.615837E0,0E0,9.737753E0,1.0321074E0,4.0976787E-1,2.0113754E-1,5.2228224E-1,0E0,0E0,0E0,0E0,0E0,0E0],"parents":[2147483647,0,0,2,2,3,3,4,4,5,5,6,6],"right_children":[2,-1,4,6,8,10,12,-1,-1,-1,-1,-1,-1],"split_conditions":[3E0,-1.6360562E-1,1.8E0,5E0,4.9E0,1.6E0,1.6E0,9.034463E-3,-1.6247705E-1,2.0451863E-1,4.6483487E-2,-1.0969331E-1,9.2642024E-2],"split_indices":[2,0,3,2,2,3,3,0,0,0,0,0,0],"split_type":[0,0,0,0,0,0,0,0,0,0,0,0,0],"sum_hessian":[4.8222637E1,1.274165E1,3.5480988E1,2.3060137E1,1.2420851E1,2.0448782E1,2.6113563E0,1.2843171E0,1.1136534E1,1.8985447E1,1.4633347E0,1.1612298E0,1.4501264E0],"tree_param":{"num_deleted":"0","num_feature":"4","num_nodes":"13","size_leaf_vector":"1"}},{"base_weights":[7.906538E-3,-5.3273785E-1,5.7290965E-1,-1.691042E-1,1.3757921E-2,1.1657733E-1,6.514791E-1,-4.5259736E-2,1.0035609E-1,5.190547E-2,2.0394923E-1],"categories":[],"categories_nodes":[],"categories_segments":[],"categories_sizes":[],"default_left":[0,0,0,0,0,0,0,0,0,0,0],"id":11,"left_children":[1,3,5,-1,-1,7,9,-1,-1,-1,-1],"loss_changes":[1.5289408E1,4.8391485E-1,8.013334E-1,0E0,0E0,3.309455E-1,1.625824E-1,0E0,0E0,0E0,0E0],"parents":[2147483647,0,0,1,1,2,2,5,5,6,6],"right_children":[2,4,6,-1,-1,8,10,-1,-1,-1,-1],"split_conditions":[4.8E0,1.6E0,1.8E0,-1.691042E-1,1.3757921E-2,5.1E0,4.9E0,-4.5259736E-2,1.0035609E-1,5.190547E-2,2.0394923E-1],"split_indices":[2,3,3,0,0,2,2,0,0,0,0],"split_type":[0,0,0,0,0,0,0,0,0,0,0],"sum_hessian":[4.8053604E1,2.4585323E1,2.3468283E1,2.3361744E1,1.2235792E0,3.8119853E0,1.9656298E1,1.8498111E0,1.9621742E0,1.4969184E0,1.8159378E1],"tree_param":{"num_deleted":"0","num_feature":"4","num_nodes":"11","size_leaf_vector":"1"}},{"base_weights":[-1.0440376E-2,1.8345241E-1,-1.6229746E-1],"categories":[],"categories_nodes":[],"categories_segments":[],"categories_sizes":[],"default_left":[0,0,0],"id":12,"left_children":[1,-1,-1],"loss_changes":[1.3269218E1,0E0,0E0],"parents":[2147483647,0,0],"right_children":[2,-1,-1],"split_conditions":[3E0,1.8345241E-1,-1.6229746E-1],"split_indices":[2,0,0],"split_type":[0,0,0],"sum_hessian":[3.821019E1,1.7519749E1,2.0690441E1],"tree_param":{"num_deleted":"0","num_feature":"4","num_nodes":"3","size_leaf_vector":"1"}},{"base_weights":[-5.4073206E-4,-1.5413892E-1,1.8279877E-1,5.3158027E-1,-4.0517473E-1,1.8694715E-1,-5.3264387E-2,-1.12482406E-1,-1.5066254E-1,-1.3548003E-1,8.859256E-2],"categories":[],"categories_nodes":[],"categories_segments":[],"categories_sizes":[],"default_left":[0,0,0,0,0,0,0,0,0,0,0],"id":13,"left_children":[1,-1,3,5,7,-1,-1,9,-1,-1,-1],"loss_changes":[3.9777577E0,0E0,6.603065E0,1.408351E0,2.8900445E-1,0E0,0E0,7.304125E-1,0E0,0E0,0E0],"parents":[2147483647,0,0,2,2,3,3,4,4,7,7],"right_children":[2,-1,4,6,8,-1,-1,10,-1,-1,-1],"split_conditions":[3E0,-1.5413892E-1,1.7E0,5E0,5.1E0,1.8694715E-1,-5.3264387E-2,2.9E0,-1.5066254E-1,-1.3548003E-1,8.859256E-2],"split_indices":[2,0,3,2,2,0,0,1,0,0,0],"split_type":[0,0,0,0,0,0,0,0,0,0,0],"sum_hessian":[4.027348E1,1.012534E1,3.014814E1,1.89833E1,1.116484E1,1.6919542E1,2.063757E0,3.3174129E0,7.8474274E0,1.7525595E0,1.5648533E0],"tree_param":{"num_deleted":"0","num_feature":"4","num_nodes":"11","size_leaf_vector":"1"}},{"base_weights":[1.0496531E-2,-4.9876207E-1,5.0269234E-1,-1.6050857E-1,1.2577154E-2,1.0384596E-1,5.790333E-1,-3.8876045E-2,8.58836E-2,4.2941872E-2,1.8301705E-1],"categories":[],"categories_nodes":[],"categories_segments":[],"categories_sizes":[],"default_left":[0,0,0,0,0,0,0,0,0,0,0],"id":14,"left_children":[1,3,5,-1,-1,7,9,-1,-1,-1,-1],"loss_changes":[1.0559314E1,4.286251E-1,5.918188E-1,0E0,0E0,2.3548043E-1,1.5275383E-1,0E0,0E0,0E0,0E0],"parents":[2147483647,0,0,1,1,2,2,5,5,6,6],"right_children":[2,4,6,-1,-1,8,10,-1,-1,-1,-1],"split_conditions":[4.8E0,1.6E0,1.8E0,-1.6050857E-1,1.2577154E-2,5.1E0,4.9E0,-3.8876045E-2,8.58836E-2,4.2941872E-2,1.8301705E-1],"split_indices":[2,3,3,0,0,2,2,0,0,0,0],"split_type":[0,0,0,0,0,0,0,0,0,0,0],"sum_hessian":[4.0126614E1,1.971491E1,2.0411701E1,1.848546E1,1.2294494E0,3.658422E0,1.675328E1,1.7319584E0,1.9264636E0,1.4861503E0,1.5267129E1],"tree_param":{"num_deleted":"0","num_feature":"4","num_nodes":"11","size_leaf_vector":"1"}},{"base_weights":[-1.291582E-2,1.6936812E-1,-1.5569985E-1],"categories":[],"categories_nodes":[],"categories_segments":[],"categories_sizes":[],"default_left":[0,0,0],"id":15,"left_children":[1,-1,-1],"loss_changes":[9.545595E0,0E0,0E0],"parents":[2147483647,0,0],"right_children":[2,-1,-1],"split_conditions":[3E0,1.6936812E-1,-1.5569985E-1],"split_indices":[2,0,0],"split_type":[0,0,0],"sum_hessian":[3.0659706E1,1.4265847E1,1.6393858E1],"tree_param":{"num_deleted":"0","num_feature":"4","num_nodes":"3","size_leaf_vector":"1"}},{"base_weights":[-2.0035512E-3,-1.4601347E-1,1.6351601E-1,4.7862774E-1,-3.6782667E-1,1.7250457E-1,-4.719114E-2,-9.566277E-2,-1.4191703E-1,-1.2694477E-1,7.991037E-2],"categories":[],"categories_nodes":[],"categories_segments":[],"categories_sizes":[],"default_left":[0,0,0,0,0,0,0,0,0,0,0],"id":16,"left_children":[1,-1,3,5,7,-1,-1,9,-1,-1,-1],"loss_changes":[2.8261182E0,0E0,4.5741477E0,1.1278007E0,2.5100422E-1,0E0,0E0,6.0329276E-1,0E0,0E0,0E0],"parents":[2147483647,0,0,2,2,3,3,4,4,7,7],"right_children":[2,-1,4,6,8,-1,-1,10,-1,-1,-1],"split_conditions":[3E0,-1.4601347E-1,1.7E0,5E0,5.1E0,1.7250457E-1,-4.719114E-2,2.9E0,-1.4191703E-1,-1.2694477E-1,7.991037E-2],"split_indices":[2,0,3,2,2,0,0,1,0,0,0],"split_type":[0,0,0,0,0,0,0,0,0,0,0],"sum_hessian":[3.3233814E1,7.9659104E0,2.5267902E1,1.5923635E1,9.344269E0,1.3910955E1,2.0126796E0,3.1378112E0,6.2064576E0,1.5588667E0,1.5789443E0],"tree_param":{"num_deleted":"0","num_feature":"4","num_nodes":"11","size_leaf_vector":"1"}},{"base_weights":[1.3992017E-2,-4.6898314E-1,4.481034E-1,-1.5349096E-1,1.3445123E-2,8.6664595E-2,5.269705E-1,7.175103E-2,-4.1498013E-2,1.5573555E-1,1.739877E-1,-2.8885141E-2,9.778843E-2],"categories":[],"categories_nodes":[],"categories_segments":[],"categories_sizes":[],"default_left":[0,0,0,0,0,0,0,0,0,0,0,0,0],"id":17,"left_children":[1,3,5,-1,-1,7,9,-1,-1,11,-1,-1,-1],"loss_changes":[7.3653874E0,3.8766527E-1,4.812293E-1,0E0,0E0,1.8775262E-1,2.0428324E-1,0E0,0E0,1.702855E-1,0E0,0E0,0E0],"parents":[2147483647,0,0,1,1,2,2,5,5,6,6,9,9],"right_children":[2,4,6,-1,-1,8,10,-1,-1,12,-1,-1,-1],"split_conditions":[4.8E0,1.6E0,1.8E0,-1.5349096E-1,1.3445123E-2,1.6E0,6E0,7.175103E-2,-4.1498013E-2,5.1E0,1.739877E-1,-2.8885141E-2,9.778843E-2],"split_indices":[2,3,3,0,0,3,0,0,0,2,0,0,0],"split_type":[0,0,0,0,0,0,0,0,0,0,0,0,0],"sum_hessian":[3.3126984E1,1.56429405E1,1.7484045E1,1.4447763E1,1.1951768E0,3.5076694E0,1.3976376E1,2.0530407E0,1.4546286E0,2.2377625E0,1.1738613E1,1.0772581E0,1.1605043E0],"tree_param":{"num_deleted":"0","num_feature":"4","num_nodes":"13","size_leaf_vector":"1"}},{"base_weights":[-1.6302604E-2,1.5879954E-1,-1.501053E-1],"categories":[],"categories_nodes":[],"categories_segments":[],"categories_sizes":[],"default_left":[0,0,0],"id":18,"left_children":[1,-1,-1],"loss_changes":[6.969123E0,0E0,0E0],"parents":[2147483647,0,0],"right_children":[2,-1,-1],"split_conditions":[3E0,1.5879954E-1,-1.501053E-1],"split_indices":[2,0,0],"split_type":[0,0,0],"sum_hessian":[2.438406E1,1.14188385E1,1.2965222E1],"tree_param":{"num_deleted":"0","num_feature":"4","num_nodes":"3","size_leaf_vector":"1"}},{"base_weights":[-3.2741202E-3,-1.3852312E-1,1.4668894E-1,4.3451038E-1,-3.3181867E-1,1.6198298E-1,-4.4376086E-2,-7.938287E-2,-1.3383763E-1,-1.1857388E-1,7.438575E-2],"categories":[],"categories_nodes":[],"categories_segments":[],"categories_sizes":[],"default_left":[0,0,0,0,0,0,0,0,0,0,0],"id":19,"left_children":[1,-1,3,5,7,-1,-1,9,-1,-1,-1],"loss_changes":[2.0186899E0,0E0,3.193547E0,9.5542693E-1,2.2090054E-1,0E0,0E0,5.100313E-1,0E0,0E0,0E0],"parents":[2147483647,0,0,2,2,3,3,4,4,7,7],"right_children":[2,-1,4,6,8,-1,-1,10,-1,-1,-1],"split_conditions":[3E0,-1.3852312E-1,1.7E0,5E0,5.1E0,1.6198298E-1,-4.4376086E-2,2.9E0,-1.3383763E-1,-1.1857388E-1,7.438575E-2],"split_indices":[2,0,3,2,2,0,0,1,0,0,0],"split_type":[0,0,0,0,0,0,0,0,0,0,0],"sum_hessian":[2.7376116E1,6.2350793E0,2.1141037E1,1.3258201E1,7.882836E0,1.1287805E1,1.9703957E0,2.9850664E0,4.8977695E0,1.4135706E0,1.5714958E0],"tree_param":{"num_deleted":"0","num_feature":"4","num_nodes":"11","size_leaf_vector":"1"}},{"base_weights":[1.78692E-2,-4.411065E-1,4.006852E-1,-1.4734577E-1,1.4260324E-2,1.7307562E-1,1.6317268E-1,-4.1549716E-2,3.4968087E-1,3.5180263E-2,1.3852356E-1],"categories":[],"categories_nodes":[],"categories_segments":[],"categories_sizes":[],"default_left":[0,0,0,0,0,0,0,0,0,0,0],"id":20,"left_children":[1,3,5,-1,-1,7,-1,-1,9,-1,-1],"loss_changes":[5.159308E0,3.503549E-1,4.2698336E-1,0E0,0E0,4.688685E-1,0E0,0E0,8.025408E-2,0E0,0E0],"parents":[2147483647,0,0,1,1,2,2,5,5,8,8],"right_children":[2,4,6,-1,-1,8,-1,-1,10,-1,-1],"split_conditions":[4.8E0,1.6E0,5.2E0,-1.4734577E-1,1.4260324E-2,1.8E0,1.6317268E-1,-4.1549716E-2,6E0,3.5180263E-2,1.3852356E-1],"split_indices":[2,3,2,0,0,3,0,0,0,0,0],"split_type":[0,0,0,0,0,0,0,0,0,0,0],"sum_hessian":[2.7357832E1,1.2372093E1,1.498574E1,1.1218017E1,1.1540767E0,6.640754E0,8.344985E0,2.4804344E0,4.16032E0,2.0191588E0,2.141161E0],"tree_param":{"num_deleted":"0","num_feature":"4","num_nodes":"11","size_leaf_vector":"1"}},{"base_weights":[-2.0260442E-2,1.5020491E-1,-1.4504465E-1],"categories":[],"categories_nodes":[],"categories_segments":[],"categories_sizes":[],"default_left":[0,0,0],"id":21,"left_children":[1,-1,-1],"loss_changes":[5.1451955E0,0E0,0E0],"parents":[2147483647,0,0],"right_children":[2,-1,-1],"split_conditions":[3E0,1.5020491E-1,-1.4504465E-1],"split_indices":[2,0,0],"split_type":[0,0,0],"sum_hessian":[1.9318583E1,9.054706E0,1.0263877E1],"tree_param":{"num_deleted":"0","num_feature":"4","num_nodes":"3","size_leaf_vector":"1"}},{"base_weights":[-5.0338423E-3,-1.3121054E-1,1.3108544E-1,3.9662874E-1,-2.97719E-1,1.5330814E-1,-3.9566956E-2,-6.3240714E-2,-1.2617521E-1,-1.109901E-1,7.0431165E-2],"categories":[],"categories_nodes":[],"categories_segments":[],"categories_sizes":[],"default_left":[0,0,0,0,0,0,0,0,0,0,0],"id":22,"left_children":[1,-1,3,5,7,-1,-1,9,-1,-1,-1],"loss_changes":[1.4444883E0,0E0,2.2469833E0,7.9143214E-1,1.9585025E-1,0E0,0E0,4.3711668E-1,0E0,0E0,0E0],"parents":[2147483647,0,0,2,2,3,3,4,4,7,7],"right_children":[2,-1,4,6,8,-1,-1,10,-1,-1,-1],"split_conditions":[3E0,-1.3121054E-1,1.7E0,5E0,5.1E0,1.5330814E-1,-3.9566956E-2,2.9E0,-1.2617521E-1,-1.109901E-1,7.0431165E-2],"split_indices":[2,0,3,2,2,0,0,1,0,0,0],"split_type":[0,0,0,0,0,0,0,0,0,0,0],"sum_hessian":[2.2571407E1,4.874898E0,1.769651E1,1.0975074E1,6.721436E0,9.049415E0,1.9256598E0,2.831829E0,3.889607E0,1.2765229E0,1.5553063E0],"tree_param":{"num_deleted":"0","num_feature":"4","num_nodes":"11","size_leaf_vector":"1"}},{"base_weights":[2.2435373E-2,-4.136587E-1,3.6083823E-1,-1.4155465E-1,1.4986594E-2,1.4510445E-1,1.535347E-1,-3.8381748E-2,3.0929622E-1,2.4111496E-2,1.2822624E-1],"categories":[],"categories_nodes":[],"categories_segments":[],"categories_sizes":[],"default_left":[0,0,0,0,0,0,0,0,0,0,0],"id":23,"left_children":[1,3,5,-1,-1,7,-1,-1,9,-1,-1],"loss_changes":[3.6375651E0,3.1476498E-1,3.7653565E-1,0E0,0E0,3.5762686E-1,0E0,0E0,9.336349E-2,0E0,0E0],"parents":[2147483647,0,0,1,1,2,2,5,5,8,8],"right_children":[2,4,6,-1,-1,8,-1,-1,10,-1,-1],"split_conditions":[4.8E0,1.6E0,5.2E0,-1.4155465E-1,1.4986594E-2,1.8E0,1.535347E-1,-3.8381748E-2,6E0,2.4111496E-2,1.2822624E-1],"split_indices":[2,3,2,0,0,3,0,0,0,0,0],"split_type":[0,0,0,0,0,0,0,0,0,0,0],"sum_hessian":[2.2637403E1,9.793849E0,1.28435545E1,8.685885E0,1.1079634E0,6.0944686E0,6.749086E0,2.371524E0,3.7229447E0,1.8391268E0,1.8838179E0],"tree_param":{"num_deleted":"0","num_feature":"4","num_nodes":"11","size_leaf_vector":"1"}},{"base_weights":[-2.4412371E-2,1.426671E-1,-1.4016874E-1],"categories":[],"categories_nodes":[],"categories_segments":[],"categories_sizes":[],"default_left":[0,0,0],"id":24,"left_children":[1,-1,-1],"loss_changes":[3.831913E0,0E0,0E0],"parents":[2147483647,0,0],"right_children":[2,-1,-1],"split_conditions":[3E0,1.426671E-1,-1.4016874E-1],"split_indices":[2,0,0],"split_type":[0,0,0],"sum_hessian":[1.5304442E1,7.1536093E0,8.150833E0],"tree_param":{"num_deleted":"0","num_feature":"4","num_nodes":"3","size_leaf_vector":"1"}},{"base_weights":[-6.7258403E-3,-1.23804785E-1,1.16685964E-1,3.623007E-1,-2.6574996E-1,1.4580147E-1,-3.517872E-2,-3.550992E-1,8.7980805E-3,-1.3418226E-1,-2.1395506E-2],"categories":[],"categories_nodes":[],"categories_segments":[],"categories_sizes":[],"default_left":[0,0,0,0,0,0,0,0,0,0,0],"id":25,"left_children":[1,-1,3,5,7,-1,-1,9,-1,-1,-1],"loss_changes":[1.0366018E0,0E0,1.5906973E0,6.5680707E-1,1.896609E-1,0E0,0E0,1.06600165E-1,0E0,0E0,0E0],"parents":[2147483647,0,0,2,2,3,3,4,4,7,7],"right_children":[2,-1,4,6,8,-1,-1,10,-1,-1,-1],"split_conditions":[3E0,-1.23804785E-1,1.7E0,5E0,3.2E0,1.4580147E-1,-3.517872E-2,6.6E0,8.7980805E-3,-1.3418226E-1,-2.1395506E-2],"split_indices":[2,0,3,2,1,0,0,0,0,0,0],"split_type":[0,0,0,0,0,0,0,0,0,0,0],"sum_hessian":[1.8729548E1,3.8199782E0,1.4909569E1,9.110873E0,5.798695E0,7.231947E0,1.8789264E0,4.2948136E0,1.5038816E0,2.8069592E0,1.4878546E0],"tree_param":{"num_deleted":"0","num_feature":"4","num_nodes":"11","size_leaf_vector":"1"}},{"base_weights":[2.6723806E-2,-3.3390886E-1,3.732311E-1,-1.392972E-1,5.3288314E-2,7.563233E-2,1.4296323E-1,8.47027E-2,-5.2510962E-2],"categories":[],"categories_nodes":[],"categories_segments":[],"categories_sizes":[],"default_left":[0,0,0,0,0,0,0,0,0],"id":26,"left_children":[1,3,5,-1,-1,7,-1,-1,-1],"loss_changes":[2.6063251E0,7.6689506E-1,2.898749E-1,0E0,0E0,2.525543E-1,0E0,0E0,0E0],"parents":[2147483647,0,0,1,1,2,2,5,5],"right_children":[2,4,6,-1,-1,8,-1,-1,-1],"split_conditions":[4.9E0,1.7E0,1.8E0,-1.392972E-1,5.3288314E-2,1.6E0,1.4296323E-1,8.47027E-2,-5.2510962E-2],"split_indices":[2,3,3,0,0,3,0,0,0],"split_type":[0,0,0,0,0,0,0,0,0],"sum_hessian":[1.885966E1,9.259282E0,9.600377E0,7.451766E0,1.807516E0,2.9203148E0,6.6800623E0,1.5312437E0,1.389071E0],"tree_param":{"num_deleted":"0","num_feature":"4","num_nodes":"9","size_leaf_vector":"1"}},{"base_weights":[-2.7217653E-2,1.3557972E-1,-1.3506499E-1],"categories":[],"categories_nodes":[],"categories_segments":[],"categories_sizes":[],"default_left":[0,0,0],"id":27,"left_children":[1,-1,-1],"loss_changes":[2.8610716E0,0E0,0E0],"parents":[2147483647,0,0],"right_children":[2,-1,-1],"split_conditions":[3E0,1.3557972E-1,-1.3506499E-1],"split_indices":[2,0,0],"split_type":[0,0,0],"sum_hessian":[1.2112318E1,5.6471434E0,6.465175E0],"tree_param":{"num_deleted":"0","num_feature":"4","num_nodes":"3","size_leaf_vector":"1"}},{"base_weights":[-8.091623E-3,1.0351886E-1,-1.2339401E-1,-1.1619165E-1,2.750514E-1,4.1194102E-1,-6.87345E-2,1.6491072E-2,1.3854973E-1,-1.0206806E-1,5.554189E-2],"categories":[],"categories_nodes":[],"categories_segments":[],"categories_sizes":[],"default_left":[0,0,0,0,0,0,0,0,0,0,0],"id":28,"left_children":[1,3,-1,-1,5,7,9,-1,-1,-1,-1],"loss_changes":[7.940303E-1,1.2748319E0,0E0,0E0,5.3975517E-1,1.1558974E-1,3.3537817E-1,0E0,0E0,0E0,0E0],"parents":[2147483647,0,0,1,1,4,4,5,5,6,6],"right_children":[2,4,-1,-1,6,8,10,-1,-1,-1,-1],"split_conditions":[5.2E0,3E0,-1.2339401E-1,-1.1619165E-1,1.7E0,2.4E0,2.9E0,1.6491072E-2,1.3854973E-1,-1.0206806E-1,5.554189E-2],"split_indices":[2,2,0,0,3,1,1,0,0,0,0],"split_type":[0,0,0,0,0,0,0,0,0,0,0],"sum_hessian":[1.5697525E1,1.28765955E1,2.8209298E0,3.0089247E0,9.867671E0,6.915706E0,2.9519644E0,1.1057692E0,5.809937E0,1.2621182E0,1.6898462E0],"tree_param":{"num_deleted":"0","num_feature":"4","num_nodes":"11","size_leaf_vector":"1"}},{"base_weights":[2.9252483E-2,-3.117514E-1,3.394487E-1,-1.3322924E-1,3.986048E-2,5.7375573E-2,1.3626397E-1,7.7819124E-2,-5.211603E-2],"categories":[],"categories_nodes":[],"categories_segments":[],"categories_sizes":[],"default_left":[0,0,0,0,0,0,0,0,0],"id":29,"left_children":[1,3,5,-1,-1,7,-1,-1,-1],"loss_changes":[1.8848864E0,5.611094E-1,2.7454495E-1,0E0,0E0,2.238741E-1,0E0,0E0,0E0],"parents":[2147483647,0,0,1,1,2,2,5,5],"right_children":[2,4,6,-1,-1,8,-1,-1,-1],"split_conditions":[4.9E0,1.7E0,1.8E0,-1.3322924E-1,3.986048E-2,1.6E0,1.3626397E-1,7.7819124E-2,-5.211603E-2],"split_indices":[2,3,3,0,0,3,0,0,0],"split_type":[0,0,0,0,0,0,0,0,0],"sum_hessian":[1.5818819E1,7.532834E0,8.285985E0,5.8058367E0,1.7269976E0,2.8300672E0,5.4559174E0,1.4446782E0,1.3853891E0],"tree_param":{"num_deleted":"0","num_feature":"4","num_nodes":"9","size_leaf_vector":"1"}},{"base_weights":[-3.051406E-2,1.2865451E-1,-1.2981202E-1],"categories":[],"categories_nodes":[],"categories_segments":[],"categories_sizes":[],"default_left":[0,0,0],"id":30,"left_children":[1,-1,-1],"loss_changes":[2.1542823E0,0E0,0E0],"parents":[2147483647,0,0],"right_children":[2,-1,-1],"split_conditions":[3E0,1.2865451E-1,-1.2981202E-1],"split_indices":[2,0,0],"split_type":[0,0,0],"sum_hessian":[9.655986E0,4.476685E0,5.179301E0],"tree_param":{"num_deleted":"0","num_feature":"4","num_nodes":"3","size_leaf_vector":"1"}},{"base_weights":[-1.0063506E-2,9.6007645E-2,-1.1684159E-1,-1.0837799E-1,2.4732584E-1,3.7618795E-1,-5.2251156E-2,1.3155746E-1,1.306629E-2,-9.5006354E-2,5.321872E-2],"categories":[],"categories_nodes":[],"categories_segments":[],"categories_sizes":[],"default_left":[0,0,0,0,0,0,0,0,0,0,0],"id":31,"left_children":[1,3,-1,-1,5,7,9,-1,-1,-1,-1],"loss_changes":[6.135818E-1,9.190681E-1,0E0,0E0,3.9038974E-1,1.2266755E-1,2.8490683E-1,0E0,0E0,0E0,0E0],"parents":[2147483647,0,0,1,1,4,4,5,5,6,6],"right_children":[2,4,-1,-1,6,8,10,-1,-1,-1,-1],"split_conditions":[5.2E0,3E0,-1.1684159E-1,-1.0837799E-1,1.7E0,5E0,2.9E0,1.3155746E-1,1.306629E-2,-9.5006354E-2,5.321872E-2],"split_indices":[2,2,0,0,3,2,1,0,0,0,0],"split_type":[0,0,0,0,0,0,0,0,0,0,0],"sum_hessian":[1.3317297E1,1.099139E1,2.3259068E0,2.387922E0,8.603468E0,5.8369794E0,2.766489E0,4.6476493E0,1.1893301E0,1.1096799E0,1.6568091E0],"tree_param":{"num_deleted":"0","num_feature":"4","num_nodes":"11","size_leaf_vector":"1"}},{"base_weights":[3.263548E-2,-2.842542E-1,3.1195673E-1,-1.270855E-1,3.3597358E-2,5.7024486E-2,1.2931728E-1,7.4260615E-2,-4.7729027E-2],"categories":[],"categories_nodes":[],"categories_segments":[],"categories_sizes":[],"default_left":[0,0,0,0,0,0,0,0,0],"id":32,"left_children":[1,3,5,-1,-1,7,-1,-1,-1],"loss_changes":[1.3613518E0,4.483207E-1,2.2193033E-1,0E0,0E0,1.9327621E-1,0E0,0E0,0E0],"parents":[2147483647,0,0,1,1,2,2,5,5],"right_children":[2,4,6,-1,-1,8,-1,-1,-1],"split_conditions":[4.9E0,1.7E0,1.8E0,-1.270855E-1,3.3597358E-2,1.6E0,1.2931728E-1,7.4260615E-2,-4.7729027E-2],"split_indices":[2,3,3,0,0,3,0,0,0],"split_type":[0,0,0,0,0,0,0,0,0],"sum_hessian":[1.337825E1,6.2593565E0,7.118894E0,4.5795827E0,1.6797738E0,2.7377038E0,4.3811903E0,1.3778099E0,1.3598938E0],"tree_param":{"num_deleted":"0","num_feature":"4","num_nodes":"9","size_leaf_vector":"1"}},{"base_weights":[-3.2220315E-2,1.2171906E-1,-1.2421722E-1],"categories":[],"categories_nodes":[],"categories_segments":[],"categories_sizes":[],"default_left":[0,0,0],"id":33,"left_children":[1,-1,-1],"loss_changes":[1.6286412E0,0E0,0E0],"parents":[2147483647,0,0],"right_children":[2,-1,-1],"split_conditions":[3E0,1.2171906E-1,-1.2421722E-1],"split_indices":[2,0,0],"split_type":[0,0,0],"sum_hessian":[7.7345753E0,3.573431E0,4.1611443E0],"tree_param":{"num_deleted":"0","num_feature":"4","num_nodes":"3","size_leaf_vector":"1"}},{"base_weights":[-1.1571053E-2,9.0091825E-2,-1.1041882E-1,-1.0047019E-1,2.249454E-1,3.48169E-1,-3.892404E-2,1.2452725E-1,1.2794828E-2,1.8213524E-2,-3.5122618E-2],"categories":[],"categories_nodes":[],"categories_segments":[],"categories_sizes":[],"default_left":[0,0,0,0,0,0,0,0,0,0,0],"id":34,"left_children":[1,3,-1,-1,5,7,9,-1,-1,-1,-1],"loss_changes":[4.8135614E-1,6.728667E-1,0E0,0E0,2.903462E-1,1.0299885E-1,3.5212588E-2,0E0,0E0,0E0,0E0],"parents":[2147483647,0,0,1,1,4,4,5,5,6,6],"right_children":[2,4,-1,-1,6,8,10,-1,-1,-1,-1],"split_conditions":[5.2E0,3E0,-1.1041882E-1,-1.0047019E-1,1.7E0,5E0,6E0,1.2452725E-1,1.2794828E-2,1.8213524E-2,-3.5122618E-2],"split_indices":[2,2,0,0,3,2,0,0,0,0,0],"split_type":[0,0,0,0,0,0,0,0,0,0,0],"sum_hessian":[1.1366788E1,9.426001E0,1.9407873E0,1.9131739E0,7.5128264E0,4.903487E0,2.6093392E0,3.7282107E0,1.1752763E0,1.2451013E0,1.364238E0],"tree_param":{"num_deleted":"0","num_feature":"4","num_nodes":"11","size_leaf_vector":"1"}},{"base_weights":[3.4179367E-2,-2.5628626E-1,2.822461E-1,-1.2043397E-1,2.8456239E-2,4.6902865E-2,1.2249651E-1,6.971582E-2,-4.6801213E-2],"categories":[],"categories_nodes":[],"categories_segments":[],"categories_sizes":[],"default_left":[0,0,0,0,0,0,0,0,0],"id":35,"left_children":[1,3,5,-1,-1,7,-1,-1,-1],"loss_changes":[9.6730584E-1,3.5642216E-1,1.9374347E-1,0E0,0E0,1.7297386E-1,0E0,0E0,0E0],"parents":[2147483647,0,0,1,1,2,2,5,5],"right_children":[2,4,6,-1,-1,8,-1,-1,-1],"split_conditions":[4.9E0,1.7E0,1.8E0,-1.2043397E-1,2.8456239E-2,1.6E0,1.2249651E-1,6.971582E-2,-4.6801213E-2],"split_indices":[2,3,3,0,0,3,0,0,0],"split_type":[0,0,0,0,0,0,0,0,0],"sum_hessian":[1.1420675E1,5.2454977E0,6.1751776E0,3.6099083E0,1.6355896E0,2.6327279E0,3.5424495E0,1.2995169E0,1.333211E0],"tree_param":{"num_deleted":"0","num_feature":"4","num_nodes":"9","size_leaf_vector":"1"}},{"base_weights":[-3.378103E-2,1.1473041E-1,-1.1842058E-1],"categories":[],"categories_nodes":[],"categories_segments":[],"categories_sizes":[],"default_left":[0,0,0],"id":36,"left_children":[1,-1,-1],"loss_changes":[1.2412937E0,0E0,0E0],"parents":[2147483647,0,0],"right_children":[2,-1,-1],"split_conditions":[3E0,1.1473041E-1,-1.1842058E-1],"split_indices":[2,0,0],"split_type":[0,0,0],"sum_hessian":[6.257526E0,2.8786495E0,3.3788764E0],"tree_param":{"num_deleted":"0","num_feature":"4","num_nodes":"3","size_leaf_vector":"1"}},{"base_weights":[-1.1769668E-2,8.550522E-2,-1.0425193E-1,-9.262984E-2,2.0517242E-1,3.2142964E-1,-2.4770336E-2,1.1755105E-1,1.2518024E-2,2.0784235E-2,-3.1381913E-2],"categories":[],"categories_nodes":[],"categories_segments":[],"categories_sizes":[],"default_left":[0,0,0,0,0,0,0,0,0,0,0],"id":37,"left_children":[1,3,-1,-1,5,7,9,-1,-1,-1,-1],"loss_changes":[3.8494444E-1,4.991211E-1,0E0,0E0,2.1343622E-1,8.559555E-2,3.3599522E-2,0E0,0E0,0E0,0E0],"parents":[2147483647,0,0,1,1,4,4,5,5,6,6],"right_children":[2,4,-1,-1,6,8,10,-1,-1,-1,-1],"split_conditions":[5.2E0,3E0,-1.0425193E-1,-9.262984E-2,1.7E0,5E0,6E0,1.1755105E-1,1.2518024E-2,2.0784235E-2,-3.1381913E-2],"split_indices":[2,2,0,0,3,2,0,0,0,0,0],"split_type":[0,0,0,0,0,0,0,0,0,0,0],"sum_hessian":[9.877048E0,8.236082E0,1.6409657E0,1.5497767E0,6.6863055E0,4.1767206E0,2.509585E0,3.0165E0,1.1602209E0,1.2129164E0,1.2966685E0],"tree_param":{"num_deleted":"0","num_feature":"4","num_nodes":"11","size_leaf_vector":"1"}},{"base_weights":[3.4172382E-2,-1.2809876E-1,1.2131728E-1,4.2546198E-2,-1.20479E-1,-1.8534036E-1,2.8817034E-1,-9.156811E-2,8.621005E-3,1.10005915E-1,2.4345754E-2],"categories":[],"categories_nodes":[],"categories_segments":[],"categories_sizes":[],"default_left":[0,0,0,0,0,0,0,0,0,0,0],"id":38,"left_children":[1,3,-1,5,-1,7,9,-1,-1,-1,-1],"loss_changes":[7.078647E-1,4.0688646E-1,0E0,3.919047E-1,0E0,1.04899555E-1,2.391079E-2,0E0,0E0,0E0,0E0],"parents":[2147483647,0,0,1,1,3,3,5,5,6,6],"right_children":[2,4,-1,6,-1,8,10,-1,-1,-1,-1],"split_conditions":[5.2E0,3.1E0,1.2131728E-1,1.7E0,-1.20479E-1,5E0,4.9E0,-9.156811E-2,8.621005E-3,1.10005915E-1,2.4345754E-2],"split_indices":[2,1,0,3,0,2,2,0,0,0,0],"split_type":[0,0,0,0,0,0,0,0,0,0,0],"sum_hessian":[9.920586E0,7.3520756E0,2.5685093E0,5.0473156E0,2.3047602E0,2.7455056E0,2.3018098E0,1.486987E0,1.2585187E0,1.1096658E0,1.1921442E0],"tree_param":{"num_deleted":"0","num_feature":"4","num_nodes":"11","size_leaf_vector":"1"}},{"base_weights":[-3.6160145E-2,1.07694656E-1,-1.1257698E-1],"categories":[],"categories_nodes":[],"categories_segments":[],"categories_sizes":[],"default_left":[0,0,0],"id":39,"left_children":[1,-1,-1],"loss_changes":[9.559152E-1,0E0,0E0],"parents":[2147483647,0,0],"right_children":[2,-1,-1],"split_conditions":[3E0,1.07694656E-1,-1.1257698E-1],"split_indices":[2,0,0],"split_type":[0,0,0],"sum_hessian":[5.1287894E0,2.3415656E0,2.7872236E0],"tree_param":{"num_deleted":"0","num_feature":"4","num_nodes":"3","size_leaf_vector":"1"}},{"base_weights":[-1.1262383E-2,7.710862E-2,-9.552697E-2,-7.356868E-2,2.0423879E-1,2.9482648E-1,-1.1383802E-2,1.231891E-2,1.0509508E-1],"categories":[],"categories_nodes":[],"categories_segments":[],"categories_sizes":[],"default_left":[0,0,0,0,0,0,0,0,0],"id":40,"left_children":[1,3,-1,-1,5,7,-1,-1,-1],"loss_changes":[2.8843918E-1,3.924499E-1,0E0,0E0,1.5460649E-1,5.4214865E-2,0E0,0E0,0E0],"parents":[2147483647,0,0,1,1,4,4,5,5],"right_children":[2,4,-1,-1,6,8,-1,-1,-1],"split_conditions":[5.2E0,5.5E0,-9.552697E-2,-7.356868E-2,1.8E0,2.7E0,-1.1383802E-2,1.231891E-2,1.0509508E-1],"split_indices":[2,0,0,0,3,1,0,0,0],"split_type":[0,0,0,0,0,0,0,0,0],"sum_hessian":[8.721666E0,7.354671E0,1.3669956E0,1.8174871E0,5.5371842E0,3.8716543E0,1.6655296E0,1.0069176E0,2.8647368E0],"tree_param":{"num_deleted":"0","num_feature":"4","num_nodes":"9","size_leaf_vector":"1"}},{"base_weights":[3.3856887E-2,-1.0994069E-1,1.1274994E-1,4.8621938E-2,-1.1203215E-1,-1.2248443E-1,1.0066672E-1,4.9705062E-2,-9.0026304E-2],"categories":[],"categories_nodes":[],"categories_segments":[],"categories_sizes":[],"default_left":[0,0,0,0,0,0,0,0,0],"id":41,"left_children":[1,3,-1,5,-1,7,-1,-1,-1],"loss_changes":[5.2223516E-1,3.3813274E-1,0E0,3.1928045E-1,0E0,2.688706E-1,0E0,0E0,0E0],"parents":[2147483647,0,0,1,1,3,3,5,5],"right_children":[2,4,-1,6,-1,8,-1,-1,-1],"split_conditions":[5.2E0,3.1E0,1.1274994E-1,1.8E0,-1.1203215E-1,2.6E0,1.0066672E-1,4.9705062E-2,-9.0026304E-2],"split_indices":[2,1,0,3,0,1,0,0,0],"split_type":[0,0,0,0,0,0,0,0,0],"sum_hessian":[8.77961E0,6.658353E0,2.1212568E0,4.666022E0,1.9923309E0,3.2820017E0,1.38402E0,1.2770516E0,2.0049503E0],"tree_param":{"num_deleted":"0","num_feature":"4","num_nodes":"9","size_leaf_vector":"1"}},{"base_weights":[-3.7150692E-2,1.01380005E-1,-1.0711715E-1],"categories":[],"categories_nodes":[],"categories_segments":[],"categories_sizes":[],"default_left":[0,0,0],"id":42,"left_children":[1,-1,-1],"loss_changes":[7.5871843E-1,0E0,0E0],"parents":[2147483647,0,0],"right_children":[2,-1,-1],"split_conditions":[3E0,1.01380005E-1,-1.0711715E-1],"split_indices":[2,0,0],"split_type":[0,0,0],"sum_hessian":[4.317504E0,1.9614234E0,2.3560805E0],"tree_param":{"num_deleted":"0","num_feature":"4","num_nodes":"3","size_leaf_vector":"1"}},{"base_weights":[-1.2618839E-2,6.5951206E-2,-8.738066E-2,-6.5477304E-2,1.7599061E-1,2.5465307E-1,-9.008711E-3,9.50125E-2,1.1912002E-1,7.104016E-2,-3.160965E-2],"categories":[],"categories_nodes":[],"categories_segments":[],"categories_sizes":[],"default_left":[0,0,0,0,0,0,0,0,0,0,0],"id":43,"left_children":[1,3,-1,-1,5,7,-1,9,-1,-1,-1],"loss_changes":[2.1486744E-1,2.8192857E-1,0E0,0E0,1.0758652E-1,6.6134155E-2,0E0,1.2349306E-1,0E0,0E0,0E0],"parents":[2147483647,0,0,1,1,4,4,5,5,7,7],"right_children":[2,4,-1,-1,6,8,-1,10,-1,-1,-1],"split_conditions":[5.2E0,5.5E0,-8.738066E-2,-6.5477304E-2,1.8E0,1.6E0,-9.008711E-3,4.7E0,1.1912002E-1,7.104016E-2,-3.160965E-2],"split_indices":[2,0,0,0,3,3,0,2,0,0,0],"split_type":[0,0,0,0,0,0,0,0,0,0,0],"sum_hessian":[7.9367857E0,6.786529E0,1.1502569E0,1.6197085E0,5.1668205E0,3.568307E0,1.5985135E0,2.468437E0,1.09987E0,1.3391099E0,1.129327E0],"tree_param":{"num_deleted":"0","num_feature":"4","num_nodes":"11","size_leaf_vector":"1"}},{"base_weights":[3.484819E-2,-1.9728342E-1,2.1869712E-1,1.2866677E-2,-1.2171358E-1,3.0850438E-2,1.0486937E-1,7.0183E-2,-5.3318065E-2],"categories":[],"categories_nodes":[],"categories_segments":[],"categories_sizes":[],"default_left":[0,0,0,0,0,0,0,0,0],"id":44,"left_children":[1,3,5,-1,-1,7,-1,-1,-1],"loss_changes":[4.2318296E-1,2.4073341E-1,1.2303412E-1,0E0,0E0,1.827221E-1,0E0,0E0,0E0],"parents":[2147483647,0,0,1,1,2,2,5,5],"right_children":[2,4,6,-1,-1,8,-1,-1,-1],"split_conditions":[4.9E0,3.1E0,1.8E0,1.2866677E-2,-1.2171358E-1,1.6E0,1.0486937E-1,7.0183E-2,-5.3318065E-2],"split_indices":[2,1,3,0,0,3,0,0,0],"split_type":[0,0,0,0,0,0,0,0,0],"sum_hessian":[7.9049444E0,3.4614143E0,4.4435296E0,1.9772521E0,1.4841623E0,2.3319683E0,2.1115615E0,1.1199006E0,1.2120678E0],"tree_param":{"num_deleted":"0","num_feature":"4","num_nodes":"9","size_leaf_vector":"1"}},{"base_weights":[-3.8002808E-2,9.5275715E-2,-1.0179033E-1],"categories":[],"categories_nodes":[],"categories_segments":[],"categories_sizes":[],"default_left":[0,0,0],"id":45,"left_children":[1,-1,-1],"loss_changes":[6.089705E-1,0E0,0E0],"parents":[2147483647,0,0],"right_children":[2,-1,-1],"split_conditions":[3E0,9.5275715E-2,-1.0179033E-1],"split_indices":[2,0,0],"split_type":[0,0,0],"sum_hessian":[3.6781945E0,1.6623051E0,2.0158894E0],"tree_param":{"num_deleted":"0","num_feature":"4","num_nodes":"3","size_leaf_vector":"1"}},{"base_weights":[-7.949374E-3,6.6193245E-2,-8.235543E-2,-5.8531027E-2,1.6499287E-1,2.3976253E-1,-8.260034E-3,9.14984E-2,1.0936948E-1,6.644314E-2,-2.6468797E-2],"categories":[],"categories_nodes":[],"categories_segments":[],"categories_sizes":[],"default_left":[0,0,0,0,0,0,0,0,0,0,0],"id":46,"left_children":[1,3,-1,-1,5,7,-1,9,-1,-1,-1],"loss_changes":[1.8299825E-1,2.2143805E-1,0E0,0E0,9.097318E-2,4.6664536E-2,0E0,9.690244E-2,0E0,0E0,0E0],"parents":[2147483647,0,0,1,1,4,4,5,5,7,7],"right_children":[2,4,-1,-1,6,8,-1,10,-1,-1,-1],"split_conditions":[5.2E0,5.5E0,-8.235543E-2,-5.8531027E-2,1.8E0,1.6E0,-8.260034E-3,4.7E0,1.0936948E-1,6.644314E-2,-2.6468797E-2],"split_indices":[2,0,0,0,3,3,0,2,0,0,0],"split_type":[0,0,0,0,0,0,0,0,0,0,0],"sum_hessian":[7.339716E0,6.3306203E0,1.0090954E0,1.4694934E0,4.861127E0,3.3246243E0,1.5365028E0,2.311605E0,1.0130194E0,1.206659E0,1.1049459E0],"tree_param":{"num_deleted":"0","num_feature":"4","num_nodes":"11","size_leaf_vector":"1"}},{"base_weights":[2.9628724E-2,-1.665063E-1,2.2243403E-1,4.933336E-2,-1.17334045E-1,1.8276447E-2,9.904708E-2,-8.010732E-2,1.0033613E-1],"categories":[],"categories_nodes":[],"categories_segments":[],"categories_sizes":[],"default_left":[0,0,0,0,0,0,0,0,0],"id":47,"left_children":[1,3,5,7,-1,-1,-1,-1,-1],"loss_changes":[3.485606E-1,2.44994E-1,5.961232E-2,3.8355115E-1,0E0,0E0,0E0,0E0,0E0],"parents":[2147483647,0,0,1,1,2,2,3,3],"right_children":[2,4,6,8,-1,-1,-1,-1,-1],"split_conditions":[5E0,3.1E0,5.2E0,1.6E0,-1.17334045E-1,1.8276447E-2,9.904708E-2,-8.010732E-2,1.0033613E-1],"split_indices":[2,1,2,3,0,0,0,0,0],"split_type":[0,0,0,0,0,0,0,0,0],"sum_hessian":[7.237914E0,3.6555922E0,3.5823221E0,2.2621253E0,1.3934668E0,2.0596936E0,1.5226285E0,1.1024076E0,1.1597177E0],"tree_param":{"num_deleted":"0","num_feature":"4","num_nodes":"9","size_leaf_vector":"1"}},{"base_weights":[-3.9240852E-2,8.918202E-2,-9.649854E-2],"categories":[],"categories_nodes":[],"categories_segments":[],"categories_sizes":[],"default_left":[0,0,0],"id":48,"left_children":[1,-1,-1],"loss_changes":[4.9039316E-1,0E0,0E0],"parents":[2147483647,0,0],"right_children":[2,-1,-1],"split_conditions":[3E0,8.918202E-2,-9.649854E-2],"split_indices":[2,0,0],"split_type":[0,0,0],"sum_hessian":[3.1538E0,1.4150863E0,1.7387136E0],"tree_param":{"num_deleted":"0","num_feature":"4","num_nodes":"3","size_leaf_vector":"1"}},{"base_weights":[-4.240285E-3,8.483507E-2,-1.2519413E-1,-5.2203894E-2,2.2303675E-1,8.864448E-3,-5.9059504E-2,9.236723E-2,1.7984115E-2],"categories":[],"categories_nodes":[],"categories_segments":[],"categories_sizes":[],"default_left":[0,0,0,0,0,0,0,0,0],"id":49,"left_children":[1,3,5,-1,7,-1,-1,-1,-1],"loss_changes":[9.387717E-2,2.1933319E-1,4.664377E-2,0E0,3.31351E-2,0E0,0E0,0E0,0E0],"parents":[2147483647,0,0,1,1,2,2,4,4],"right_children":[2,4,6,-1,8,-1,-1,-1,-1],"split_conditions":[5E0,5.5E0,6.1E0,-5.2203894E-2,6E0,8.864448E-3,-5.9059504E-2,9.236723E-2,1.7984115E-2],"split_indices":[2,0,0,0,0,0,0,0,0],"split_type":[0,0,0,0,0,0,0,0,0],"sum_hessian":[6.7275167E0,4.046284E0,2.6812327E0,1.3182026E0,2.7280815E0,1.0347852E0,1.6464474E0,1.2104398E0,1.5176415E0],"tree_param":{"num_deleted":"0","num_feature":"4","num_nodes":"9","size_leaf_vector":"1"}},{"base_weights":[2.585512E-2,-1.6054553E-1,2.0660017E-1,4.667626E-2,-1.1151415E-1,1.8479496E-2,9.157548E-2,-6.024235E-3,2.695482E-2],"categories":[],"categories_nodes":[],"categories_segments":[],"categories_sizes":[],"default_left":[0,0,0,0,0,0,0,0,0],"id":50,"left_children":[1,3,5,7,-1,-1,-1,-1,-1],"loss_changes":[2.8826186E-1,2.0508273E-1,4.2440534E-2,1.0605524E-2,0E0,0E0,0E0,0E0,0E0],"parents":[2147483647,0,0,1,1,2,2,3,3],"right_children":[2,4,6,8,-1,-1,-1,-1,-1],"split_conditions":[5E0,3.1E0,5.2E0,6E0,-1.1151415E-1,1.8479496E-2,9.157548E-2,-6.024235E-3,2.695482E-2],"split_indices":[2,1,2,0,0,0,0,0,0],"split_type":[0,0,0,0,0,0,0,0,0],"sum_hessian":[6.571552E0,3.2901788E0,3.281373E0,2.0537615E0,1.2364173E0,1.9862726E0,1.2951003E0,1.0166423E0,1.037119E0],"tree_param":{"num_deleted":"0","num_feature":"4","num_nodes":"9","size_leaf_vector":"1"}},{"base_weights":[-3.983401E-2,8.379894E-2,-9.172585E-2],"categories":[],"categories_nodes":[],"categories_segments":[],"categories_sizes":[],"default_left":[0,0,0],"id":51,"left_children":[1,-1,-1],"loss_changes":[4.042501E-1,0E0,0E0],"parents":[2147483647,0,0],"right_children":[2,-1,-1],"split_conditions":[3E0,8.379894E-2,-9.172585E-2],"split_indices":[2,0,0],"split_type":[0,0,0],"sum_hessian":[2.7567806E0,1.2300296E0,1.5267512E0],"tree_param":{"num_deleted":"0","num_feature":"4","num_nodes":"3","size_leaf_vector":"1"}},{"base_weights":[-7.109214E-4,-4.71517E-2,5.583595E-2,1.9887914E-1,-1.0426855E-1,8.310749E-2,1.498666E-2,9.156841E-3,-5.1393375E-2],"categories":[],"categories_nodes":[],"categories_segments":[],"categories_sizes":[],"default_left":[0,0,0,0,0,0,0,0,0],"id":52,"left_children":[1,-1,3,5,7,-1,-1,-1,-1],"loss_changes":[7.408293E-2,0E0,1.6180806E-1,2.802439E-2,3.7423458E-2,0E0,0E0,0E0,0E0],"parents":[2147483647,0,0,2,2,3,3,4,4],"right_children":[2,-1,4,6,8,-1,-1,-1,-1],"split_conditions":[5.5E0,-4.71517E-2,5E0,6E0,6.1E0,8.310749E-2,1.498666E-2,9.156841E-3,-5.1393375E-2],"split_indices":[0,0,2,0,0,0,0,0,0],"split_type":[0,0,0,0,0,0,0,0,0],"sum_hessian":[6.3814964E0,1.2216811E0,5.159815E0,2.5971992E0,2.5626156E0,1.1392239E0,1.4579754E0,1.0321577E0,1.5304581E0],"tree_param":{"num_deleted":"0","num_feature":"4","num_nodes":"9","size_leaf_vector":"1"}},{"base_weights":[2.1530984E-2,-1.4168386E-1,1.8095453E-1,-9.351066E-2,2.6505338E-2,1.2510595E-2,8.386284E-2],"categories":[],"categories_nodes":[],"categories_segments":[],"categories_sizes":[],"default_left":[0,0,0,0,0,0,0],"id":53,"left_children":[1,3,5,-1,-1,-1,-1],"loss_changes":[2.1283184E-1,1.8850327E-1,4.4334576E-2,0E0,0E0,0E0,0E0],"parents":[2147483647,0,0,1,1,2,2],"right_children":[2,4,6,-1,-1,-1,-1],"split_conditions":[5E0,1.7E0,1.8E0,-9.351066E-2,2.6505338E-2,1.2510595E-2,8.386284E-2],"split_indices":[2,3,3,0,0,0,0],"split_type":[0,0,0,0,0,0,0],"sum_hessian":[6.194135E0,3.1156573E0,3.0784776E0,1.5873958E0,1.5282617E0,1.8659204E0,1.2125572E0],"tree_param":{"num_deleted":"0","num_feature":"4","num_nodes":"7","size_leaf_vector":"1"}},{"base_weights":[-3.9644603E-2,7.866776E-2,-8.7003425E-2],"categories":[],"categories_nodes":[],"categories_segments":[],"categories_sizes":[],"default_left":[0,0,0],"id":54,"left_children":[1,-1,-1],"loss_changes":[3.3477163E-1,0E0,0E0],"parents":[2147483647,0,0],"right_children":[2,-1,-1],"split_conditions":[3E0,7.866776E-2,-8.7003425E-2],"split_indices":[2,0,0],"split_type":[0,0,0],"sum_hessian":[2.4232447E0,1.0771475E0,1.3460972E0],"tree_param":{"num_deleted":"0","num_feature":"4","num_nodes":"3","size_leaf_vector":"1"}},{"base_weights":[1.1285786E-3,-4.351306E-2,5.3574774E-2,1.7986558E-1,-8.699998E-2,7.811822E-2,1.0139887E-2,1.0207403E-2,-4.5376822E-2],"categories":[],"categories_nodes":[],"categories_segments":[],"categories_sizes":[],"default_left":[0,0,0,0,0,0,0,0,0],"id":55,"left_children":[1,-1,3,5,7,-1,-1,-1,-1],"loss_changes":[6.1546024E-2,0E0,1.2026216E-1,3.154441E-2,3.20737E-2,0E0,0E0,0E0,0E0],"parents":[2147483647,0,0,2,2,3,3,4,4],"right_children":[2,-1,4,6,8,-1,-1,-1,-1],"split_conditions":[5.5E0,-4.351306E-2,5E0,6E0,6.1E0,7.811822E-2,1.0139887E-2,1.0207403E-2,-4.5376822E-2],"split_indices":[0,0,2,0,0,0,0,0,0],"split_type":[0,0,0,0,0,0,0,0,0],"sum_hessian":[6.0146294E0,1.1219867E0,4.8926425E0,2.4300294E0,2.462613E0,1.0618817E0,1.3681479E0,1.0172093E0,1.4454039E0],"tree_param":{"num_deleted":"0","num_feature":"4","num_nodes":"9","size_leaf_vector":"1"}},{"base_weights":[1.880237E-2,-7.060857E-2,8.0440536E-2,4.202334E-2,-8.474557E-2,-3.629372E-2,6.296152E-2],"categories":[],"categories_nodes":[],"categories_segments":[],"categories_sizes":[],"default_left":[0,0,0,0,0,0,0],"id":56,"left_children":[1,3,-1,5,-1,-1,-1],"loss_changes":[1.7045783E-1,1.5015064E-1,0E0,1.5271664E-1,0E0,0E0,0E0],"parents":[2147483647,0,0,1,1,3,3],"right_children":[2,4,-1,6,-1,-1,-1],"split_conditions":[5.2E0,3.1E0,8.0440536E-2,1.7E0,-8.474557E-2,-3.629372E-2,6.296152E-2],"split_indices":[2,1,0,3,0,0,0],"split_type":[0,0,0,0,0,0,0],"sum_hessian":[5.7969623E0,4.794471E0,1.0024918E0,3.653801E0,1.1406697E0,1.9953222E0,1.6584789E0],"tree_param":{"num_deleted":"0","num_feature":"4","num_nodes":"7","size_leaf_vector":"1"}},{"base_weights":[-3.8628872E-2,6.778017E-2,-8.080523E-2],"categories":[],"categories_nodes":[],"categories_segments":[],"categories_sizes":[],"default_left":[0,0,0],"id":57,"left_children":[1,-1,-1],"loss_changes":[2.536062E-1,0E0,0E0],"parents":[2147483647,0,0],"right_children":[2,-1,-1],"split_conditions":[3.5E0,6.778017E-2,-8.080523E-2],"split_indices":[2,0,0],"split_type":[0,0,0],"sum_hessian":[2.1577566E0,1.0148299E0,1.1429268E0],"tree_param":{"num_deleted":"0","num_feature":"4","num_nodes":"3","size_leaf_vector":"1"}},{"base_weights":[2.3436998E-3,6.072442E-2,-3.196635E-2,-3.884898E-2,1.4287004E-1,2.6702003E-3,7.47686E-2],"categories":[],"categories_nodes":[],"categories_segments":[],"categories_sizes":[],"default_left":[0,0,0,0,0,0,0],"id":58,"left_children":[1,3,-1,-1,5,-1,-1],"loss_changes":[4.926809E-2,9.693277E-2,0E0,0E0,5.4505765E-2,0E0,0E0],"parents":[2147483647,0,0,1,1,4,4],"right_children":[2,4,-1,-1,6,-1,-1],"split_conditions":[1.8E0,5.5E0,-3.196635E-2,-3.884898E-2,1.6E0,2.6702003E-3,7.47686E-2],"split_indices":[3,0,0,0,3,0,0],"split_type":[0,0,0,0,0,0,0],"sum_hessian":[5.7317743E0,4.019357E0,1.7124175E0,1.0383855E0,2.9809716E0,1.798839E0,1.1821326E0],"tree_param":{"num_deleted":"0","num_feature":"4","num_nodes":"7","size_leaf_vector":"1"}},{"base_weights":[1.6348675E-2,-1.1697111E-1,1.4248618E-1,-8.533336E-2,2.6438652E-2,4.1258284E-3,5.6749288E-2],"categories":[],"categories_nodes":[],"categories_segments":[],"categories_sizes":[],"default_left":[0,0,0,0,0,0,0],"id":59,"left_children":[1,3,5,-1,-1,-1,-1],"loss_changes":[1.2590869E-1,1.5240875E-1,2.0165317E-2,0E0,0E0,0E0,0E0],"parents":[2147483647,0,0,1,1,2,2],"right_children":[2,4,6,-1,-1,-1,-1],"split_conditions":[5E0,1.7E0,6.1E0,-8.533336E-2,2.6438652E-2,4.1258284E-3,5.6749288E-2],"split_indices":[2,3,0,0,0,0,0],"split_type":[0,0,0,0,0,0,0],"sum_hessian":[5.4960666E0,2.7072916E0,2.788775E0,1.277388E0,1.4299036E0,1.0866193E0,1.7021557E0],"tree_param":{"num_deleted":"0","num_feature":"4","num_nodes":"7","size_leaf_vector":"1"}},{"base_weights":[-4.1420393E-2],"categories":[],"categories_nodes":[],"categories_segments":[],"categories_sizes":[],"default_left":[0],"id":60,"left_children":[-1],"loss_changes":[0E0],"parents":[2147483647],"right_children":[-1],"split_conditions":[-1.2426118E-2],"split_indices":[0],"split_type":[0],"sum_hessian":[1.9475789E0],"tree_param":{"num_deleted":"0","num_feature":"4","num_nodes":"1","size_leaf_vector":"1"}},{"base_weights":[5.5243634E-3,6.952943E-2,-7.564741E-2,-2.9460678E-2,4.9142905E-2,4.1584466E-3,-3.627529E-2],"categories":[],"categories_nodes":[],"categories_segments":[],"categories_sizes":[],"default_left":[0,0,0,0,0,0,0],"id":61,"left_children":[1,3,5,-1,-1,-1,-1],"loss_changes":[3.893323E-2,8.163421E-2,1.5195591E-2,0E0,0E0,0E0,0E0],"parents":[2147483647,0,0,1,1,2,2],"right_children":[2,4,6,-1,-1,-1,-1],"split_conditions":[5E0,5.6E0,2.8E0,-2.9460678E-2,4.9142905E-2,4.1584466E-3,-3.627529E-2],"split_indices":[2,0,1,0,0,0,0],"split_type":[0,0,0,0,0,0,0],"sum_hessian":[5.481402E0,3.1449745E0,2.3364277E0,1.1166931E0,2.0282812E0,1.0178084E0,1.3186193E0],"tree_param":{"num_deleted":"0","num_feature":"4","num_nodes":"7","size_leaf_vector":"1"}},{"base_weights":[1.3863615E-2,9.4037786E-2,-5.9631996E-2,-4.9312573E-2,9.066121E-2,3.857857E-2,-4.9546722E-2],"categories":[],"categories_nodes":[],"categories_segments":[],"categories_sizes":[],"default_left":[0,0,0,0,0,0,0],"id":62,"left_children":[1,3,-1,5,-1,-1,-1],"loss_changes":[1.2479864E-1,1.7003384E-1,0E0,1.0240482E-1,0E0,0E0,0E0],"parents":[2147483647,0,0,1,1,3,3],"right_children":[2,4,-1,6,-1,-1,-1],"split_conditions":[3.2E0,1.8E0,-5.9631996E-2,2.7E0,9.066121E-2,3.857857E-2,-4.9546722E-2],"split_indices":[1,3,0,1,0,0,0],"split_type":[0,0,0,0,0,0,0],"sum_hessian":[5.2239842E0,4.1986494E0,1.0253351E0,2.9383268E0,1.2603223E0,1.1153429E0,1.8229841E0],"tree_param":{"num_deleted":"0","num_feature":"4","num_nodes":"7","size_leaf_vector":"1"}},{"base_weights":[-3.8308628E-2],"categories":[],"categories_nodes":[],"categories_segments":[],"categories_sizes":[],"default_left":[0],"id":63,"left_children":[-1],"loss_changes":[0E0],"parents":[2147483647],"right_children":[-1],"split_conditions":[-1.1492589E-2],"split_indices":[0],"split_type":[0],"sum_hessian":[1.8930581E0],"tree_param":{"num_deleted":"0","num_feature":"4","num_nodes":"1","size_leaf_vector":"1"}},{"base_weights":[3.2030146E-3,5.279393E-2,-2.7872134E-2,-3.948652E-2,5.5897407E-2,-2.8343681E-2,5.443511E-3],"categories":[],"categories_nodes":[],"categories_segments":[],"categories_sizes":[],"default_left":[0,0,0,0,0,0,0],"id":64,"left_children":[1,3,-1,5,-1,-1,-1],"loss_changes":[3.511112E-2,6.672831E-2,0E0,1.3359308E-2,0E0,0E0,0E0],"parents":[2147483647,0,0,1,1,3,3],"right_children":[2,4,-1,6,-1,-1,-1],"split_conditions":[5.1E0,6.1E0,-2.7872134E-2,2.7E0,5.5897407E-2,-2.8343681E-2,5.443511E-3],"split_indices":[2,0,0,1,0,0,0],"split_type":[0,0,0,0,0,0,0],"sum_hessian":[5.3375974E0,3.8181837E0,1.5194136E0,2.6743102E0,1.1438736E0,1.0413172E0,1.6329929E0],"tree_param":{"num_deleted":"0","num_feature":"4","num_nodes":"7","size_leaf_vector":"1"}},{"base_weights":[1.4931395E-2,-3.7720926E-2,1.238906E-1,2.0467695E-3,5.1858123E-2],"categories":[],"categories_nodes":[],"categories_segments":[],"categories_sizes":[],"default_left":[0,0,0,0,0],"id":65,"left_children":[1,-1,3,-1,-1],"loss_changes":[1.08505644E-1,0E0,2.1294799E-2,0E0,0E0],"parents":[2147483647,0,0,2,2],"right_children":[2,-1,4,-1,-1],"split_conditions":[4.9E0,-3.7720926E-2,2.8E0,2.0467695E-3,5.1858123E-2],"split_indices":[2,0,1,0,0],"split_type":[0,0,0,0,0],"sum_hessian":[5.063011E0,2.1427348E0,2.9202764E0,1.1973037E0,1.7229728E0],"tree_param":{"num_deleted":"0","num_feature":"4","num_nodes":"5","size_leaf_vector":"1"}},{"base_weights":[-3.3356365E-2],"categories":[],"categories_nodes":[],"categories_segments":[],"categories_sizes":[],"default_left":[0],"id":66,"left_children":[-1],"loss_changes":[0E0],"parents":[2147483647],"right_children":[-1],"split_conditions":[-1.000691E-2],"split_indices":[0],"split_type":[0],"sum_hessian":[1.8651164E0],"tree_param":{"num_deleted":"0","num_feature":"4","num_nodes":"1","size_leaf_vector":"1"}},{"base_weights":[2.817083E-3,5.3737607E-2,-2.7515987E-2,-2.7481357E-2,1.2479172E-1,-6.973814E-3,7.099827E-2],"categories":[],"categories_nodes":[],"categories_segments":[],"categories_sizes":[],"default_left":[0,0,0,0,0,0,0],"id":67,"left_children":[1,3,-1,-1,5,-1,-1],"loss_changes":[3.5017554E-2,5.989567E-2,0E0,0E0,6.471127E-2,0E0,0E0],"parents":[2147483647,0,0,1,1,4,4],"right_children":[2,4,-1,-1,6,-1,-1],"split_conditions":[1.8E0,5.6E0,-2.7515987E-2,-2.7481357E-2,1.6E0,-6.973814E-3,7.099827E-2],"split_indices":[3,0,0,0,3,0,0],"split_type":[0,0,0,0,0,0,0],"sum_hessian":[5.2504196E0,3.6928885E0,1.5575311E0,1.1176004E0,2.575288E0,1.4494358E0,1.1258522E0],"tree_param":{"num_deleted":"0","num_feature":"4","num_nodes":"7","size_leaf_vector":"1"}},{"base_weights":[1.3091789E-2,9.143473E-2,-5.0663278E-2,-3.9983198E-2,8.5109815E-2,3.586528E-2,-4.5273352E-2],"categories":[],"categories_nodes":[],"categories_segments":[],"categories_sizes":[],"default_left":[0,0,0,0,0,0,0],"id":68,"left_children":[1,3,-1,5,-1,-1,-1],"loss_changes":[1.0033243E-1,1.3291249E-1,0E0,8.412836E-2,0E0,0E0,0E0],"parents":[2147483647,0,0,1,1,3,3],"right_children":[2,4,-1,6,-1,-1,-1],"split_conditions":[3.1E0,1.8E0,-5.0663278E-2,2.7E0,8.5109815E-2,3.586528E-2,-4.5273352E-2],"split_indices":[1,3,0,1,0,0,0],"split_type":[0,0,0,0,0,0,0],"sum_hessian":[4.9547606E0,3.8113809E0,1.1433799E0,2.7343924E0,1.0769883E0,1.089608E0,1.6447846E0],"tree_param":{"num_deleted":"0","num_feature":"4","num_nodes":"7","size_leaf_vector":"1"}},{"base_weights":[-3.392251E-2],"categories":[],"categories_nodes":[],"categories_segments":[],"categories_sizes":[],"default_left":[0],"id":69,"left_children":[-1],"loss_changes":[0E0],"parents":[2147483647],"right_children":[-1],"split_conditions":[-1.0176753E-2],"split_indices":[0],"split_type":[0],"sum_hessian":[1.8296602E0],"tree_param":{"num_deleted":"0","num_feature":"4","num_nodes":"1","size_leaf_vector":"1"}},{"base_weights":[2.2020459E-3,6.299896E-2,-2.2379814E-2,-2.4835149E-2,4.464891E-2],"categories":[],"categories_nodes":[],"categories_segments":[],"categories_sizes":[],"default_left":[0,0,0,0,0],"id":70,"left_children":[1,3,-1,-1,-1],"loss_changes":[3.3339396E-2,6.1941862E-2,0E0,0E0,0E0],"parents":[2147483647,0,0,1,1],"right_children":[2,4,-1,-1,-1],"split_conditions":[5E0,5.6E0,-2.2379814E-2,-2.4835149E-2,4.464891E-2],"split_indices":[2,0,0,0,0],"split_type":[0,0,0,0,0],"sum_hessian":[5.133635E0,2.9656823E0,2.1679528E0,1.1121701E0,1.8535123E0],"tree_param":{"num_deleted":"0","num_feature":"4","num_nodes":"5","size_leaf_vector":"1"}},{"base_weights":[1.417266E-2,-1.13297924E-1,1.3318183E-1,-7.80981E-2,2.043211E-2,6.3205366E-3,5.132379E-2],"categories":[],"categories_nodes":[],"categories_segments":[],"categories_sizes":[],"default_left":[0,0,0,0,0,0,0],"id":71,"left_children":[1,3,5,-1,-1,-1,-1],"loss_changes":[1.0337751E-1,1.0709059E-1,1.1136845E-2,0E0,0E0,0E0,0E0],"parents":[2147483647,0,0,1,1,2,2],"right_children":[2,4,6,-1,-1,-1,-1],"split_conditions":[5E0,1.7E0,2.8E0,-7.80981E-2,2.043211E-2,6.3205366E-3,5.132379E-2],"split_indices":[2,3,1,0,0,0,0],"split_type":[0,0,0,0,0,0,0],"sum_hessian":[4.8198633E0,2.350372E0,2.4694912E0,1.0578899E0,1.2924823E0,1.016949E0,1.4525421E0],"tree_param":{"num_deleted":"0","num_feature":"4","num_nodes":"7","size_leaf_vector":"1"}},{"base_weights":[-3.2432158E-2],"categories":[],"categories_nodes":[],"categories_segments":[],"categories_sizes":[],"default_left":[0],"id":72,"left_children":[-1],"loss_changes":[0E0],"parents":[2147483647],"right_children":[-1],"split_conditions":[-9.729648E-3],"split_indices":[0],"split_type":[0],"sum_hessian":[1.7763286E0],"tree_param":{"num_deleted":"0","num_feature":"4","num_nodes":"1","size_leaf_vector":"1"}},{"base_weights":[3.5701382E-3,-2.376405E-2,4.8419163E-2,4.138562E-2,-1.2513122E-2],"categories":[],"categories_nodes":[],"categories_segments":[],"categories_sizes":[],"default_left":[0,0,0,0,0],"id":73,"left_children":[1,-1,3,-1,-1],"loss_changes":[2.6124053E-2,0E0,4.2183153E-2,0E0,0E0],"parents":[2147483647,0,0,2,2],"right_children":[2,-1,4,-1,-1],"split_conditions":[5.9E0,-2.376405E-2,5E0,4.138562E-2,-1.2513122E-2],"split_indices":[0,0,2,0,0],"split_type":[0,0,0,0,0],"sum_hessian":[5.003236E0,1.4888492E0,3.5143867E0,1.4968493E0,2.0175374E0],"tree_param":{"num_deleted":"0","num_feature":"4","num_nodes":"5","size_leaf_vector":"1"}},{"base_weights":[1.2098923E-2,-4.2099386E-2,1.0283285E-1,-4.6574157E-2,8.313974E-2,3.8649067E-2,-5.8037356E-2],"categories":[],"categories_nodes":[],"categories_segments":[],"categories_sizes":[],"default_left":[0,0,0,0,0,0,0],"id":74,"left_children":[1,-1,3,5,-1,-1,-1],"loss_changes":[9.285937E-2,0E0,1.2050658E-1,1.0429973E-1,0E0,0E0,0E0],"parents":[2147483647,0,0,2,2,3,3],"right_children":[2,-1,4,6,-1,-1,-1],"split_conditions":[6E0,-4.2099386E-2,1.8E0,1.6E0,8.313974E-2,3.8649067E-2,-5.8037356E-2],"split_indices":[0,0,3,3,0,0,0],"split_type":[0,0,0,0,0,0,0],"sum_hessian":[4.67067E0,1.5388407E0,3.131829E0,2.080903E0,1.0509262E0,1.0043939E0,1.076509E0],"tree_param":{"num_deleted":"0","num_feature":"4","num_nodes":"7","size_leaf_vector":"1"}},{"base_weights":[-3.1191912E-2],"categories":[],"categories_nodes":[],"categories_segments":[],"categories_sizes":[],"default_left":[0],"id":75,"left_children":[-1],"loss_changes":[0E0],"parents":[2147483647],"right_children":[-1],"split_conditions":[-9.357573E-3],"split_indices":[0],"split_type":[0],"sum_hessian":[1.7356889E0],"tree_param":{"num_deleted":"0","num_feature":"4","num_nodes":"1","size_leaf_vector":"1"}},{"base_weights":[2.118258E-3,-2.393184E-2,4.7703788E-2,4.01715E-2,-1.1966001E-2],"categories":[],"categories_nodes":[],"categories_segments":[],"categories_sizes":[],"default_left":[0,0,0,0,0],"id":76,"left_children":[1,-1,3,-1,-1],"loss_changes":[2.5836563E-2,0E0,3.869116E-2,0E0,0E0],"parents":[2147483647,0,0,2,2],"right_children":[2,-1,4,-1,-1],"split_conditions":[5.9E0,-2.393184E-2,5E0,4.01715E-2,-1.1966001E-2],"split_indices":[0,0,2,0,0],"split_type":[0,0,0,0,0],"sum_hessian":[4.9016395E0,1.4846377E0,3.4170015E0,1.4556636E0,1.9613379E0],"tree_param":{"num_deleted":"0","num_feature":"4","num_nodes":"5","size_leaf_vector":"1"}},{"base_weights":[1.3116027E-2,8.767379E-2,-4.804079E-2,-6.3833157E-3,5.4435138E-2],"categories":[],"categories_nodes":[],"categories_segments":[],"categories_sizes":[],"default_left":[0,0,0,0,0],"id":77,"left_children":[1,3,-1,-1,-1],"loss_changes":[8.576866E-2,5.012853E-2,0E0,0E0,0E0],"parents":[2147483647,0,0,1,1],"right_children":[2,4,-1,-1,-1],"split_conditions":[3.1E0,1.7E0,-4.804079E-2,-6.3833157E-3,5.4435138E-2],"split_indices":[1,3,0,0,0],"split_type":[0,0,0,0,0],"sum_hessian":[4.5529437E0,3.5284517E0,1.0244921E0,1.9897845E0,1.5386672E0],"tree_param":{"num_deleted":"0","num_feature":"4","num_nodes":"5","size_leaf_vector":"1"}},{"base_weights":[-3.1583365E-2],"categories":[],"categories_nodes":[],"categories_segments":[],"categories_sizes":[],"default_left":[0],"id":78,"left_children":[-1],"loss_changes":[0E0],"parents":[2147483647],"right_children":[-1],"split_conditions":[-9.4750095E-3],"split_indices":[0],"split_type":[0],"sum_hessian":[1.7065424E0],"tree_param":{"num_deleted":"0","num_feature":"4","num_nodes":"1","size_leaf_vector":"1"}},{"base_weights":[3.6598179E-3,4.8626225E-2,-2.4760325E-2,-2.2557462E-2,1.0973053E-1,-9.920345E-3,6.433828E-2],"categories":[],"categories_nodes":[],"categories_segments":[],"categories_sizes":[],"default_left":[0,0,0,0,0,0,0],"id":79,"left_children":[1,3,-1,-1,5,-1,-1],"loss_changes":[2.6645502E-2,4.204449E-2,0E0,0E0,5.7899885E-2,0E0,0E0],"parents":[2147483647,0,0,1,1,4,4],"right_children":[2,4,-1,-1,6,-1,-1],"split_conditions":[1.8E0,5.6E0,-2.4760325E-2,-2.2557462E-2,1.6E0,-9.920345E-3,6.433828E-2],"split_indices":[3,0,0,0,3,0,0],"split_type":[0,0,0,0,0,0,0],"sum_hessian":[4.839286E0,3.4666386E0,1.3726473E0,1.0693116E0,2.397327E0,1.3038307E0,1.0934962E0],"tree_param":{"num_deleted":"0","num_feature":"4","num_nodes":"7","size_leaf_vector":"1"}},{"base_weights":[1.1681268E-2,-3.938296E-2,9.68497E-2,-1.3106489E-2,4.789942E-2],"categories":[],"categories_nodes":[],"categories_segments":[],"categories_sizes":[],"default_left":[0,0,0,0,0],"id":80,"left_children":[1,-1,3,-1,-1],"loss_changes":[7.9539075E-2,0E0,4.2418372E-2,0E0,0E0],"parents":[2147483647,0,0,2,2],"right_children":[2,-1,4,-1,-1],"split_conditions":[6E0,-3.938296E-2,2.8E0,-1.3106489E-2,4.789942E-2],"split_indices":[0,0,1,0,0],"split_type":[0,0,0,0,0],"sum_hessian":[4.4884834E0,1.4736096E0,3.0148737E0,1.0253406E0,1.9895331E0],"tree_param":{"num_deleted":"0","num_feature":"4","num_nodes":"5","size_leaf_vector":"1"}},{"base_weights":[-3.188135E-2],"categories":[],"categories_nodes":[],"categories_segments":[],"categories_sizes":[],"default_left":[0],"id":81,"left_children":[-1],"loss_changes":[0E0],"parents":[2147483647],"right_children":[-1],"split_conditions":[-9.564405E-3],"split_indices":[0],"split_type":[0],"sum_hessian":[1.6807044E0],"tree_param":{"num_deleted":"0","num_feature":"4","num_nodes":"1","size_leaf_vector":"1"}},{"base_weights":[5.117723E-3,-2.1652019E-2,4.790024E-2,3.3673707E-2,-1.8461576E-2],"categories":[],"categories_nodes":[],"categories_segments":[],"categories_sizes":[],"default_left":[0,0,0,0,0],"id":82,"left_children":[1,-1,3,-1,-1],"loss_changes":[2.2552313E-2,0E0,3.731591E-2,0E0,0E0],"parents":[2147483647,0,0,2,2],"right_children":[2,-1,4,-1,-1],"split_conditions":[5.9E0,-2.1652019E-2,5.1E0,3.3673707E-2,-1.8461576E-2],"split_indices":[0,0,2,0,0],"split_type":[0,0,0,0,0],"sum_hessian":[4.774682E0,1.4564567E0,3.3182251E0,2.073466E0,1.2447591E0],"tree_param":{"num_deleted":"0","num_feature":"4","num_nodes":"5","size_leaf_vector":"1"}},{"base_weights":[1.0331739E-2,-3.7755802E-2,9.27225E-2,-1.07561555E-2,4.47877E-2],"categories":[],"categories_nodes":[],"categories_segments":[],"categories_sizes":[],"default_left":[0,0,0,0,0],"id":83,"left_children":[1,-1,3,-1,-1],"loss_changes":[7.2391085E-2,0E0,3.4065805E-2,0E0,0E0],"parents":[2147483647,0,0,2,2],"right_children":[2,-1,4,-1,-1],"split_conditions":[6E0,-3.7755802E-2,2.8E0,-1.07561555E-2,4.47877E-2],"split_indices":[0,0,1,0,0],"split_type":[0,0,0,0,0],"sum_hessian":[4.411754E0,1.4641454E0,2.9476085E0,1.0125065E0,1.935102E0],"tree_param":{"num_deleted":"0","num_feature":"4","num_nodes":"5","size_leaf_vector":"1"}},{"base_weights":[-3.1706676E-2],"categories":[],"categories_nodes":[],"categories_segments":[],"categories_sizes":[],"default_left":[0],"id":84,"left_children":[-1],"loss_changes":[0E0],"parents":[2147483647],"right_children":[-1],"split_conditions":[-9.5120035E-3],"split_indices":[0],"split_type":[0],"sum_hessian":[1.6526343E0],"tree_param":{"num_deleted":"0","num_feature":"4","num_nodes":"1","size_leaf_vector":"1"}},{"base_weights":[4.9663796E-3,4.738969E-2,-2.3577616E-2,-2.2618767E-2,1.08603194E-1,-9.345381E-3,6.317668E-2],"categories":[],"categories_nodes":[],"categories_segments":[],"categories_sizes":[],"default_left":[0,0,0,0,0,0,0],"id":85,"left_children":[1,3,-1,-1,5,-1,-1],"loss_changes":[2.4011996E-2,4.1407745E-2,0E0,0E0,5.443779E-2,0E0,0E0],"parents":[2147483647,0,0,1,1,4,4],"right_children":[2,4,-1,-1,6,-1,-1],"split_conditions":[1.8E0,5.6E0,-2.3577616E-2,-2.2618767E-2,1.6E0,-9.345381E-3,6.317668E-2],"split_indices":[3,0,0,0,3,0,0],"split_type":[0,0,0,0,0,0,0],"sum_hessian":[4.723144E0,3.4197595E0,1.3033847E0,1.06062E0,2.3591394E0,1.2882962E0,1.0708433E0],"tree_param":{"num_deleted":"0","num_feature":"4","num_nodes":"7","size_leaf_vector":"1"}},{"base_weights":[1.0399076E-2,-3.4971032E-2,8.7247565E-2,-9.434451E-3,4.1973192E-2],"categories":[],"categories_nodes":[],"categories_segments":[],"categories_sizes":[],"default_left":[0,0,0,0,0],"id":86,"left_children":[1,-1,3,-1,-1],"loss_changes":[6.2417272E-2,0E0,2.8825881E-2,0E0,0E0],"parents":[2147483647,0,0,2,2],"right_children":[2,-1,4,-1,-1],"split_conditions":[6E0,-3.4971032E-2,2.8E0,-9.434451E-3,4.1973192E-2],"split_indices":[0,0,1,0,0],"split_type":[0,0,0,0,0],"sum_hessian":[4.3545895E0,1.4469894E0,2.9076002E0,1.0173862E0,1.890214E0],"tree_param":{"num_deleted":"0","num_feature":"4","num_nodes":"5","size_leaf_vector":"1"}},{"base_weights":[-3.210485E-2],"categories":[],"categories_nodes":[],"categories_segments":[],"categories_sizes":[],"default_left":[0],"id":87,"left_children":[-1],"loss_changes":[0E0],"parents":[2147483647],"right_children":[-1],"split_conditions":[-9.631455E-3],"split_indices":[0],"split_type":[0],"sum_hessian":[1.6306248E0],"tree_param":{"num_deleted":"0","num_feature":"4","num_nodes":"1","size_leaf_vector":"1"}},{"base_weights":[5.978482E-3,-2.1938626E-2,5.0470363E-2,4.0043604E-2,-1.0547284E-2],"categories":[],"categories_nodes":[],"categories_segments":[],"categories_sizes":[],"default_left":[0,0,0,0,0],"id":88,"left_children":[1,-1,3,-1,-1],"loss_changes":[2.363656E-2,0E0,3.4678694E-2,0E0,0E0],"parents":[2147483647,0,0,2,2],"right_children":[2,-1,4,-1,-1],"split_conditions":[5.9E0,-2.1938626E-2,5E0,4.0043604E-2,-1.0547284E-2],"split_indices":[0,0,2,0,0],"split_type":[0,0,0,0,0],"sum_hessian":[4.666995E0,1.4482832E0,3.2187119E0,1.3506056E0,1.8681064E0],"tree_param":{"num_deleted":"0","num_feature":"4","num_nodes":"5","size_leaf_vector":"1"}},{"base_weights":[9.562114E-3,-3.1162243E-2,9.853986E-2,4.3074256E-3,3.901266E-2],"categories":[],"categories_nodes":[],"categories_segments":[],"categories_sizes":[],"default_left":[0,0,0,0,0],"id":89,"left_children":[1,-1,3,-1,-1],"loss_changes":[6.362176E-2,0E0,7.3545426E-3,0E0,0E0],"parents":[2147483647,0,0,2,2],"right_children":[2,-1,4,-1,-1],"split_conditions":[4.9E0,-3.1162243E-2,2.8E0,4.3074256E-3,3.901266E-2],"split_indices":[2,0,1,0,0],"split_type":[0,0,0,0,0],"sum_hessian":[4.2892513E0,1.8118882E0,2.4773633E0,1.0710473E0,1.406316E0],"tree_param":{"num_deleted":"0","num_feature":"4","num_nodes":"5","size_leaf_vector":"1"}},{"base_weights":[-3.146715E-2],"categories":[],"categories_nodes":[],"categories_segments":[],"categories_sizes":[],"default_left":[0],"id":90,"left_children":[-1],"loss_changes":[0E0],"parents":[2147483647],"right_children":[-1],"split_conditions":[-9.440145E-3],"split_indices":[0],"split_type":[0],"sum_hessian":[1.6039033E0],"tree_param":{"num_deleted":"0","num_feature":"4","num_nodes":"1","size_leaf_vector":"1"}},{"base_weights":[5.214504E-3,4.822834E-2,-2.4066003E-2,-2.2290599E-2,1.0967106E-1,-8.716941E-3,6.2498663E-2],"categories":[],"categories_nodes":[],"categories_segments":[],"categories_sizes":[],"default_left":[0,0,0,0,0,0,0],"id":91,"left_children":[1,3,-1,-1,5,-1,-1],"loss_changes":[2.4518717E-2,4.0988676E-2,0E0,0E0,5.1343232E-2,0E0,0E0],"parents":[2147483647,0,0,1,1,4,4],"right_children":[2,4,-1,-1,6,-1,-1],"split_conditions":[1.8E0,5.6E0,-2.4066003E-2,-2.2290599E-2,1.6E0,-8.716941E-3,6.2498663E-2],"split_indices":[3,0,0,0,3,0,0],"split_type":[0,0,0,0,0,0,0],"sum_hessian":[4.619209E0,3.362021E0,1.257188E0,1.0529392E0,2.3090818E0,1.2528588E0,1.056223E0],"tree_param":{"num_deleted":"0","num_feature":"4","num_nodes":"7","size_leaf_vector":"1"}},{"base_weights":[1.0049471E-2,-7.006217E-2,3.8551252E-2,3.5431996E-2,-5.4235213E-2],"categories":[],"categories_nodes":[],"categories_segments":[],"categories_sizes":[],"default_left":[0,0,0,0,0],"id":92,"left_children":[1,3,-1,-1,-1],"loss_changes":[5.8708277E-2,9.993482E-2,0E0,0E0,0E0],"parents":[2147483647,0,0,1,1],"right_children":[2,4,-1,-1,-1],"split_conditions":[1.8E0,2.7E0,3.8551252E-2,3.5431996E-2,-5.4235213E-2],"split_indices":[3,1,0,0,0],"split_type":[0,0,0,0,0],"sum_hessian":[4.2378387E0,2.7717912E0,1.4660475E0,1.0020825E0,1.7697088E0],"tree_param":{"num_deleted":"0","num_feature":"4","num_nodes":"5","size_leaf_vector":"1"}},{"base_weights":[-3.1950988E-2],"categories":[],"categories_nodes":[],"categories_segments":[],"categories_sizes":[],"default_left":[0],"id":93,"left_children":[-1],"loss_changes":[0E0],"parents":[2147483647],"right_children":[-1],"split_conditions":[-9.585297E-3],"split_indices":[0],"split_type":[0],"sum_hessian":[1.5763246E0],"tree_param":{"num_deleted":"0","num_feature":"4","num_nodes":"1","size_leaf_vector":"1"}},{"base_weights":[4.261743E-3,4.3813393E-2,-2.2587296E-2,-2.010407E-2,2.987202E-2],"categories":[],"categories_nodes":[],"categories_segments":[],"categories_sizes":[],"default_left":[0,0,0,0,0],"id":94,"left_children":[1,3,-1,-1,-1],"loss_changes":[2.0748893E-2,3.3470754E-2,0E0,0E0,0E0],"parents":[2147483647,0,0,1,1],"right_children":[2,4,-1,-1,-1],"split_conditions":[5.1E0,5.6E0,-2.2587296E-2,-2.010407E-2,2.987202E-2],"split_indices":[2,0,0,0,0],"split_type":[0,0,0,0,0],"sum_hessian":[4.5459914E0,3.3364463E0,1.2095451E0,1.049222E0,2.2872243E0],"tree_param":{"num_deleted":"0","num_feature":"4","num_nodes":"5","size_leaf_vector":"1"}},{"base_weights":[1.1396998E-2,-3.555257E-2,9.150361E-2,3.2714363E-2,6.8394444E-3],"categories":[],"categories_nodes":[],"categories_segments":[],"categories_sizes":[],"default_left":[0,0,0,0,0],"id":95,"left_children":[1,-1,3,-1,-1],"loss_changes":[6.442314E-2,0E0,2.0330213E-3,0E0,0E0],"parents":[2147483647,0,0,2,2],"right_children":[2,-1,4,-1,-1],"split_conditions":[6E0,-3.555257E-2,6.4E0,3.2714363E-2,6.8394444E-3],"split_indices":[0,0,0,0,0],"split_type":[0,0,0,0,0],"sum_hessian":[4.148728E0,1.3996264E0,2.7491014E0,1.7221607E0,1.0269406E0],"tree_param":{"num_deleted":"0","num_feature":"4","num_nodes":"5","size_leaf_vector":"1"}},{"base_weights":[-3.0860765E-2],"categories":[],"categories_nodes":[],"categories_segments":[],"categories_sizes":[],"default_left":[0],"id":96,"left_children":[-1],"loss_changes":[0E0],"parents":[2147483647],"right_children":[-1],"split_conditions":[-9.25823E-3],"split_indices":[0],"split_type":[0],"sum_hessian":[1.5558597E0],"tree_param":{"num_deleted":"0","num_feature":"4","num_nodes":"1","size_leaf_vector":"1"}},{"base_weights":[3.4206929E-3,-2.0351622E-2,4.4826306E-2,3.6392365E-2,-1.0250805E-2],"categories":[],"categories_nodes":[],"categories_segments":[],"categories_sizes":[],"default_left":[0,0,0,0,0],"id":97,"left_children":[1,-1,3,-1,-1],"loss_changes":[1.9280571E-2,0E0,2.8815217E-2,0E0,0E0],"parents":[2147483647,0,0,2,2],"right_children":[2,-1,4,-1,-1],"split_conditions":[5.9E0,-2.0351622E-2,5E0,3.6392365E-2,-1.0250805E-2],"split_indices":[0,0,2,0,0],"split_type":[0,0,0,0,0],"sum_hessian":[4.5039454E0,1.4206315E0,3.083314E0,1.2944416E0,1.7888725E0],"tree_param":{"num_deleted":"0","num_feature":"4","num_nodes":"5","size_leaf_vector":"1"}},{"base_weights":[1.1760799E-2,-3.257356E-2,8.5611865E-2,3.0371923E-2,6.5465844E-3],"categories":[],"categories_nodes":[],"categories_segments":[],"categories_sizes":[],"default_left":[0,0,0,0,0],"id":98,"left_children":[1,-1,3,-1,-1],"loss_changes":[5.467265E-2,0E0,1.5024543E-3,0E0,0E0],"parents":[2147483647,0,0,2,2],"right_children":[2,-1,4,-1,-1],"split_conditions":[6E0,-3.257356E-2,6.4E0,3.0371923E-2,6.5465844E-3],"split_indices":[0,0,0,0,0],"split_type":[0,0,0,0,0],"sum_hessian":[4.1058946E0,1.3826494E0,2.7232451E0,1.715809E0,1.0074363E0],"tree_param":{"num_deleted":"0","num_feature":"4","num_nodes":"5","size_leaf_vector":"1"}},{"base_weights":[-3.126059E-2],"categories":[],"categories_nodes":[],"categories_segments":[],"categories_sizes":[],"default_left":[0],"id":99,"left_children":[-1],"loss_changes":[0E0],"parents":[2147483647],"right_children":[-1],"split_conditions":[-9.378178E-3],"split_indices":[0],"split_type":[0],"sum_hessian":[1.5365009E0],"tree_param":{"num_deleted":"0","num_feature":"4","num_nodes":"1","size_leaf_vector":"1"}},{"base_weights":[4.388584E-3,4.5021746E-2,-2.2992872E-2,-2.0136345E-2,1.0201437E-1,-8.427162E-3,5.7642374E-2],"categories":[],"categories_nodes":[],"categories_segments":[],"categories_sizes":[],"default_left":[0,0,0,0,0,0,0],"id":100,"left_children":[1,3,-1,-1,5,-1,-1],"loss_changes":[2.1454325E-2,3.4149513E-2,0E0,0E0,4.3262545E-2,0E0,0E0],"parents":[2147483647,0,0,1,1,4,4],"right_children":[2,4,-1,-1,6,-1,-1],"split_conditions":[1.8E0,5.6E0,-2.2992872E-2,-2.0136345E-2,1.6E0,-8.427162E-3,5.7642374E-2],"split_indices":[3,0,0,0,3,0,0],"split_type":[0,0,0,0,0,0,0],"sum_hessian":[4.4679937E0,3.271763E0,1.1962306E0,1.0425831E0,2.22918E0,1.1939483E0,1.0352317E0],"tree_param":{"num_deleted":"0","num_feature":"4","num_nodes":"7","size_leaf_vector":"1"}},{"base_weights":[1.0904227E-2,-6.518593E-2,3.705378E-2,-3.8526643E-2,3.4526493E-3],"categories":[],"categories_nodes":[],"categories_segments":[],"categories_sizes":[],"default_left":[0,0,0,0,0],"id":101,"left_children":[1,3,-1,-1,-1],"loss_changes":[5.1500402E-2,1.9328749E-2,0E0,0E0,0E0],"parents":[2147483647,0,0,1,1],"right_children":[2,4,-1,-1,-1],"split_conditions":[1.8E0,5E0,3.705378E-2,-3.8526643E-2,3.4526493E-3],"split_indices":[3,2,0,0,0],"split_type":[0,0,0,0,0],"sum_hessian":[4.070863E0,2.680655E0,1.3902079E0,1.0995765E0,1.5810786E0],"tree_param":{"num_deleted":"0","num_feature":"4","num_nodes":"5","size_leaf_vector":"1"}},{"base_weights":[-3.1171031E-2],"categories":[],"categories_nodes":[],"categories_segments":[],"categories_sizes":[],"default_left":[0],"id":102,"left_children":[-1],"loss_changes":[0E0],"parents":[2147483647],"right_children":[-1],"split_conditions":[-9.351309E-3],"split_indices":[0],"split_type":[0],"sum_hessian":[1.5146147E0],"tree_param":{"num_deleted":"0","num_feature":"4","num_nodes":"1","size_leaf_vector":"1"}},{"base_weights":[4.8785317E-3,-2.0256383E-2,4.7186077E-2,3.6704652E-2,-9.4770575E-3],"categories":[],"categories_nodes":[],"categories_segments":[],"categories_sizes":[],"default_left":[0,0,0,0,0],"id":103,"left_children":[1,-1,3,-1,-1],"loss_changes":[1.9738823E-2,0E0,2.75461E-2,0E0,0E0],"parents":[2147483647,0,0,2,2],"right_children":[2,-1,4,-1,-1],"split_conditions":[5.9E0,-2.0256383E-2,5E0,3.6704652E-2,-9.4770575E-3],"split_indices":[0,0,2,0,0],"split_type":[0,0,0,0,0],"sum_hessian":[4.403998E0,1.4045185E0,2.9994793E0,1.2518932E0,1.7475861E0],"tree_param":{"num_deleted":"0","num_feature":"4","num_nodes":"5","size_leaf_vector":"1"}},{"base_weights":[1.0413549E-2,-3.1347763E-2,2.460667E-2],"categories":[],"categories_nodes":[],"categories_segments":[],"categories_sizes":[],"default_left":[0,0,0],"id":104,"left_children":[1,-1,-1],"loss_changes":[4.9675602E-2,0E0,0E0],"parents":[2147483647,0,0],"right_children":[2,-1,-1],"split_conditions":[6E0,-3.1347763E-2,2.460667E-2],"split_indices":[0,0,0],"split_type":[0,0,0],"sum_hessian":[3.9955673E0,1.3577125E0,2.6378548E0],"tree_param":{"num_deleted":"0","num_feature":"4","num_nodes":"3","size_leaf_vector":"1"}},{"base_weights":[-3.1199573E-2],"categories":[],"categories_nodes":[],"categories_segments":[],"categories_sizes":[],"default_left":[0],"id":105,"left_children":[-1],"loss_changes":[0E0],"parents":[2147483647],"right_children":[-1],"split_conditions":[-9.359872E-3],"split_indices":[0],"split_type":[0],"sum_hessian":[1.4946988E0],"tree_param":{"num_deleted":"0","num_feature":"4","num_nodes":"1","size_leaf_vector":"1"}},{"base_weights":[6.3718725E-3,-2.0222893E-2,4.942189E-2,2.928481E-2,-1.2093867E-2],"categories":[],"categories_nodes":[],"categories_segments":[],"categories_sizes":[],"default_left":[0,0,0,0,0],"id":106,"left_children":[1,-1,3,-1,-1],"loss_changes":[2.0391693E-2,0E0,2.1099616E-2,0E0,0E0],"parents":[2147483647,0,0,2,2],"right_children":[2,-1,4,-1,-1],"split_conditions":[5.9E0,-2.0222893E-2,5.1E0,2.928481E-2,-1.2093867E-2],"split_indices":[0,0,2,0,0],"split_type":[0,0,0,0,0],"sum_hessian":[4.3710938E0,1.4021561E0,2.9689376E0,1.8744127E0,1.094525E0],"tree_param":{"num_deleted":"0","num_feature":"4","num_nodes":"5","size_leaf_vector":"1"}},{"base_weights":[8.788671E-3,-6.136838E-2,3.423224E-2,-3.5863165E-2,2.9117046E-3],"categories":[],"categories_nodes":[],"categories_segments":[],"categories_sizes":[],"default_left":[0,0,0,0,0],"id":107,"left_children":[1,3,-1,-1,-1],"loss_changes":[4.3667354E-2,1.6163338E-2,0E0,0E0,0E0],"parents":[2147483647,0,0,1,1],"right_children":[2,4,-1,-1,-1],"split_conditions":[1.8E0,5E0,3.423224E-2,-3.5863165E-2,2.9117046E-3],"split_indices":[3,2,0,0,0],"split_type":[0,0,0,0,0],"sum_hessian":[3.9621706E0,2.628518E0,1.3336524E0,1.070407E0,1.5581111E0],"tree_param":{"num_deleted":"0","num_feature":"4","num_nodes":"5","size_leaf_vector":"1"}},{"base_weights":[-3.097355E-2],"categories":[],"categories_nodes":[],"categories_segments":[],"categories_sizes":[],"default_left":[0],"id":108,"left_children":[-1],"loss_changes":[0E0],"parents":[2147483647],"right_children":[-1],"split_conditions":[-9.292065E-3],"split_indices":[0],"split_type":[0],"sum_hessian":[1.4719572E0],"tree_param":{"num_deleted":"0","num_feature":"4","num_nodes":"1","size_leaf_vector":"1"}},{"base_weights":[5.5620386E-3,-1.9887306E-2,4.784972E-2,3.3150624E-2,-6.172445E-3],"categories":[],"categories_nodes":[],"categories_segments":[],"categories_sizes":[],"default_left":[0,0,0,0,0],"id":109,"left_children":[1,-1,3,-1,-1],"loss_changes":[1.9345628E-2,0E0,1.9128233E-2,0E0,0E0],"parents":[2147483647,0,0,2,2],"right_children":[2,-1,4,-1,-1],"split_conditions":[5.9E0,-1.9887306E-2,5E0,3.3150624E-2,-6.172445E-3],"split_indices":[0,0,2,0,0],"split_type":[0,0,0,0,0],"sum_hessian":[4.322899E0,1.3912826E0,2.931616E0,1.2093431E0,1.7222731E0],"tree_param":{"num_deleted":"0","num_feature":"4","num_nodes":"5","size_leaf_vector":"1"}},{"base_weights":[9.567295E-3,3.7988164E-2,-5.4221608E-2,-5.3041387E-2,2.8474266E-2],"categories":[],"categories_nodes":[],"categories_segments":[],"categories_sizes":[],"default_left":[0,0,0,0,0],"id":110,"left_children":[1,-1,3,-1,-1],"loss_changes":[4.351498E-2,0E0,8.7660015E-2,0E0,0E0],"parents":[2147483647,0,0,2,2],"right_children":[2,-1,4,-1,-1],"split_conditions":[2.7E0,3.7988164E-2,6.1E0,-5.3041387E-2,2.8474266E-2],"split_indices":[1,0,0,0,0],"split_type":[0,0,0,0,0],"sum_hessian":[3.9080548E0,1.0309839E0,2.877071E0,1.4772826E0,1.3997883E0],"tree_param":{"num_deleted":"0","num_feature":"4","num_nodes":"5","size_leaf_vector":"1"}},{"base_weights":[-3.1453762E-2],"categories":[],"categories_nodes":[],"categories_segments":[],"categories_sizes":[],"default_left":[0],"id":111,"left_children":[-1],"loss_changes":[0E0],"parents":[2147483647],"right_children":[-1],"split_conditions":[-9.436129E-3],"split_indices":[0],"split_type":[0],"sum_hessian":[1.448569E0],"tree_param":{"num_deleted":"0","num_feature":"4","num_nodes":"1","size_leaf_vector":"1"}},{"base_weights":[5.060653E-3,2.1794396E-2,-4.6322662E-2,-3.65314E-2,1.3798407E-2],"categories":[],"categories_nodes":[],"categories_segments":[],"categories_sizes":[],"default_left":[0,0,0,0,0],"id":112,"left_children":[1,-1,3,-1,-1],"loss_changes":[2.1728184E-2,0E0,3.0776635E-2,0E0,0E0],"parents":[2147483647,0,0,2,2],"right_children":[2,-1,4,-1,-1],"split_conditions":[2.8E0,2.1794396E-2,1.7E0,-3.65314E-2,1.3798407E-2],"split_indices":[1,0,3,0,0],"split_type":[0,0,0,0,0],"sum_hessian":[4.2875533E0,1.6730517E0,2.6145015E0,1.2631276E0,1.3513739E0],"tree_param":{"num_deleted":"0","num_feature":"4","num_nodes":"5","size_leaf_vector":"1"}},{"base_weights":[1.0329545E-2,-6.298262E-2,3.5820298E-2,-3.507778E-2,1.5804194E-3],"categories":[],"categories_nodes":[],"categories_segments":[],"categories_sizes":[],"default_left":[0,0,0,0,0],"id":113,"left_children":[1,3,-1,-1,-1],"loss_changes":[4.6428055E-2,1.3739473E-2,0E0,0E0,0E0],"parents":[2147483647,0,0,1,1],"right_children":[2,4,-1,-1,-1],"split_conditions":[1.8E0,5E0,3.5820298E-2,-3.507778E-2,1.5804194E-3],"split_indices":[3,2,0,0,0],"split_type":[0,0,0,0,0],"sum_hessian":[3.8657563E0,2.564553E0,1.3012033E0,1.034071E0,1.530482E0],"tree_param":{"num_deleted":"0","num_feature":"4","num_nodes":"5","size_leaf_vector":"1"}},{"base_weights":[-3.245381E-2],"categories":[],"categories_nodes":[],"categories_segments":[],"categories_sizes":[],"default_left":[0],"id":114,"left_children":[-1],"loss_changes":[0E0],"parents":[2147483647],"right_children":[-1],"split_conditions":[-9.736143E-3],"split_indices":[0],"split_type":[0],"sum_hessian":[1.4186939E0],"tree_param":{"num_deleted":"0","num_feature":"4","num_nodes":"1","size_leaf_vector":"1"}},{"base_weights":[4.669462E-3,4.2571332E-2,-2.133566E-2,-1.9743424E-2,2.976253E-2],"categories":[],"categories_nodes":[],"categories_segments":[],"categories_sizes":[],"default_left":[0,0,0,0,0],"id":115,"left_children":[1,3,-1,-1,-1],"loss_changes":[1.8081501E-2,3.1813957E-2,0E0,0E0,0E0],"parents":[2147483647,0,0,1,1],"right_children":[2,4,-1,-1,-1],"split_conditions":[1.8E0,5.6E0,-2.133566E-2,-1.9743424E-2,2.976253E-2],"split_indices":[3,0,0,0,0],"split_type":[0,0,0,0,0],"sum_hessian":[4.240652E0,3.1190808E0,1.1215714E0,1.0149165E0,2.1041641E0],"tree_param":{"num_deleted":"0","num_feature":"4","num_nodes":"5","size_leaf_vector":"1"}},{"base_weights":[1.120607E-2,3.7501987E-2,-5.194313E-2,-4.9162988E-2,3.0575436E-2],"categories":[],"categories_nodes":[],"categories_segments":[],"categories_sizes":[],"default_left":[0,0,0,0,0],"id":116,"left_children":[1,-1,3,-1,-1],"loss_changes":[4.113885E-2,0E0,8.226605E-2,0E0,0E0],"parents":[2147483647,0,0,2,2],"right_children":[2,-1,4,-1,-1],"split_conditions":[2.7E0,3.7501987E-2,1.8E0,-4.9162988E-2,3.0575436E-2],"split_indices":[1,0,3,0,0],"split_type":[0,0,0,0,0],"sum_hessian":[3.8209882E0,1.0140445E0,2.8069437E0,1.5871814E0,1.2197623E0],"tree_param":{"num_deleted":"0","num_feature":"4","num_nodes":"5","size_leaf_vector":"1"}},{"base_weights":[-3.084165E-2],"categories":[],"categories_nodes":[],"categories_segments":[],"categories_sizes":[],"default_left":[0],"id":117,"left_children":[-1],"loss_changes":[0E0],"parents":[2147483647],"right_children":[-1],"split_conditions":[-9.252495E-3],"split_indices":[0],"split_type":[0],"sum_hessian":[1.3955476E0],"tree_param":{"num_deleted":"0","num_feature":"4","num_nodes":"1","size_leaf_vector":"1"}},{"base_weights":[2.0424563E-3,1.907268E-2,-4.4149876E-2,-3.8253076E-2,1.683463E-2],"categories":[],"categories_nodes":[],"categories_segments":[],"categories_sizes":[],"default_left":[0,0,0,0,0],"id":118,"left_children":[1,-1,3,-1,-1],"loss_changes":[1.7551864E-2,0E0,3.6854606E-2,0E0,0E0],"parents":[2147483647,0,0,2,2],"right_children":[2,-1,4,-1,-1],"split_conditions":[2.8E0,1.907268E-2,1.7E0,-3.8253076E-2,1.683463E-2],"split_indices":[1,0,3,0,0],"split_type":[0,0,0,0,0],"sum_hessian":[4.1875954E0,1.634261E0,2.5533345E0,1.2458273E0,1.307507E0],"tree_param":{"num_deleted":"0","num_feature":"4","num_nodes":"5","size_leaf_vector":"1"}},{"base_weights":[1.3295346E-2,-2.9949933E-2,2.5184795E-2],"categories":[],"categories_nodes":[],"categories_segments":[],"categories_sizes":[],"default_left":[0,0,0],"id":119,"left_children":[1,-1,-1],"loss_changes":[4.642883E-2,0E0,0E0],"parents":[2147483647,0,0],"right_children":[2,-1,-1],"split_conditions":[6E0,-2.9949933E-2,2.5184795E-2],"split_indices":[0,0,0],"split_type":[0,0,0],"sum_hessian":[3.760169E0,1.2868026E0,2.4733663E0],"tree_param":{"num_deleted":"0","num_feature":"4","num_nodes":"3","size_leaf_vector":"1"}},{"base_weights":[-3.260485E-2],"categories":[],"categories_nodes":[],"categories_segments":[],"categories_sizes":[],"default_left":[0],"id":120,"left_children":[-1],"loss_changes":[0E0],"parents":[2147483647],"right_children":[-1],"split_conditions":[-9.781456E-3],"split_indices":[0],"split_type":[0],"sum_hessian":[1.3707095E0],"tree_param":{"num_deleted":"0","num_feature":"4","num_nodes":"1","size_leaf_vector":"1"}},{"base_weights":[3.2097604E-3,-1.920903E-2,4.3658223E-2,3.1824026E-2,-7.258604E-3],"categories":[],"categories_nodes":[],"categories_segments":[],"categories_sizes":[],"default_left":[0,0,0,0,0],"id":121,"left_children":[1,-1,3,-1,-1],"loss_changes":[1.6822686E-2,0E0,1.8724944E-2,0E0,0E0],"parents":[2147483647,0,0,2,2],"right_children":[2,-1,4,-1,-1],"split_conditions":[5.9E0,-1.920903E-2,5E0,3.1824026E-2,-7.258604E-3],"split_indices":[0,0,2,0,0],"split_type":[0,0,0,0,0],"sum_hessian":[4.1575513E0,1.3426241E0,2.8149273E0,1.1727182E0,1.6422092E0],"tree_param":{"num_deleted":"0","num_feature":"4","num_nodes":"5","size_leaf_vector":"1"}},{"base_weights":[1.2823812E-2,3.6515895E-2,-4.920552E-2,-4.7730472E-2,2.577171E-2],"categories":[],"categories_nodes":[],"categories_segments":[],"categories_sizes":[],"default_left":[0,0,0,0,0],"id":122,"left_children":[1,-1,3,-1,-1],"loss_changes":[3.798373E-2,0E0,6.904837E-2,0E0,0E0],"parents":[2147483647,0,0,2,2],"right_children":[2,-1,4,-1,-1],"split_conditions":[2.7E0,3.6515895E-2,6.1E0,-4.7730472E-2,2.577171E-2],"split_indices":[1,0,0,0,0],"split_type":[0,0,0,0,0],"sum_hessian":[3.7365956E0,1.0068043E0,2.7297912E0,1.4074484E0,1.3223429E0],"tree_param":{"num_deleted":"0","num_feature":"4","num_nodes":"5","size_leaf_vector":"1"}},{"base_weights":[-3.2736283E-2],"categories":[],"categories_nodes":[],"categories_segments":[],"categories_sizes":[],"default_left":[0],"id":123,"left_children":[-1],"loss_changes":[0E0],"parents":[2147483647],"right_children":[-1],"split_conditions":[-9.820885E-3],"split_indices":[0],"split_type":[0],"sum_hessian":[1.3509849E0],"tree_param":{"num_deleted":"0","num_feature":"4","num_nodes":"1","size_leaf_vector":"1"}},{"base_weights":[3.0708127E-3,4.240635E-2,-2.2320215E-2,-1.2093681E-2,2.5538819E-2],"categories":[],"categories_nodes":[],"categories_segments":[],"categories_sizes":[],"default_left":[0,0,0,0,0],"id":124,"left_children":[1,3,-1,-1,-1],"loss_changes":[1.8774493E-2,1.769644E-2,0E0,0E0,0E0],"parents":[2147483647,0,0,1,1],"right_children":[2,4,-1,-1,-1],"split_conditions":[1.8E0,5.7E0,-2.2320215E-2,-1.2093681E-2,2.5538819E-2],"split_indices":[3,0,0,0,0],"split_type":[0,0,0,0,0],"sum_hessian":[4.1255207E0,3.036422E0,1.0890985E0,1.053366E0,1.9830561E0],"tree_param":{"num_deleted":"0","num_feature":"4","num_nodes":"5","size_leaf_vector":"1"}},{"base_weights":[1.3027175E-2,-5.6301743E-2,3.4321837E-2,-5.540545E-3,-2.0827327E-2],"categories":[],"categories_nodes":[],"categories_segments":[],"categories_sizes":[],"default_left":[0,0,0,0,0],"id":125,"left_children":[1,3,-1,-1,-1],"loss_changes":[3.947385E-2,4.3627154E-4,0E0,0E0,0E0],"parents":[2147483647,0,0,1,1],"right_children":[2,4,-1,-1,-1],"split_conditions":[1.8E0,1.6E0,3.4321837E-2,-5.540545E-3,-2.0827327E-2],"split_indices":[3,3,0,0,0],"split_type":[0,0,0,0,0],"sum_hessian":[3.6998112E0,2.4612818E0,1.2385294E0,1.2538238E0,1.207458E0],"tree_param":{"num_deleted":"0","num_feature":"4","num_nodes":"5","size_leaf_vector":"1"}},{"base_weights":[-2.9478617E-2],"categories":[],"categories_nodes":[],"categories_segments":[],"categories_sizes":[],"default_left":[0],"id":126,"left_children":[-1],"loss_changes":[0E0],"parents":[2147483647],"right_children":[-1],"split_conditions":[-8.843586E-3],"split_indices":[0],"split_type":[0],"sum_hessian":[1.3399174E0],"tree_param":{"num_deleted":"0","num_feature":"4","num_nodes":"1","size_leaf_vector":"1"}},{"base_weights":[1.5477684E-3,1.7553972E-2,-4.1420683E-2,-3.6328528E-2,1.624903E-2],"categories":[],"categories_nodes":[],"categories_segments":[],"categories_sizes":[],"default_left":[0,0,0,0,0],"id":127,"left_children":[1,-1,3,-1,-1],"loss_changes":[1.4888001E-2,0E0,3.3124067E-2,0E0,0E0],"parents":[2147483647,0,0,2,2],"right_children":[2,-1,4,-1,-1],"split_conditions":[2.8E0,1.7553972E-2,1.7E0,-3.6328528E-2,1.624903E-2],"split_indices":[1,0,3,0,0],"split_type":[0,0,0,0,0],"sum_hessian":[4.09223E0,1.60398E0,2.4882498E0,1.2115028E0,1.2767471E0],"tree_param":{"num_deleted":"0","num_feature":"4","num_nodes":"5","size_leaf_vector":"1"}},{"base_weights":[1.310147E-2,-2.7861008E-2,2.3961002E-2],"categories":[],"categories_nodes":[],"categories_segments":[],"categories_sizes":[],"default_left":[0,0,0],"id":128,"left_children":[1,-1,-1],"loss_changes":[4.0414147E-2,0E0,0E0],"parents":[2147483647,0,0],"right_children":[2,-1,-1],"split_conditions":[6E0,-2.7861008E-2,2.3961002E-2],"split_indices":[0,0,0],"split_type":[0,0,0],"sum_hessian":[3.6634624E0,1.2649211E0,2.3985412E0],"tree_param":{"num_deleted":"0","num_feature":"4","num_nodes":"3","size_leaf_vector":"1"}},{"base_weights":[-3.117629E-2],"categories":[],"categories_nodes":[],"categories_segments":[],"categories_sizes":[],"default_left":[0],"id":129,"left_children":[-1],"loss_changes":[0E0],"parents":[2147483647],"right_children":[-1],"split_conditions":[-9.352887E-3],"split_indices":[0],"split_type":[0],"sum_hessian":[1.3177266E0],"tree_param":{"num_deleted":"0","num_feature":"4","num_nodes":"1","size_leaf_vector":"1"}},{"base_weights":[2.7008743E-3,-1.8601907E-2,4.223196E-2,3.0354507E-2,-6.8850005E-3],"categories":[],"categories_nodes":[],"categories_segments":[],"categories_sizes":[],"default_left":[0,0,0,0,0],"id":130,"left_children":[1,-1,3,-1,-1],"loss_changes":[1.5574901E-2,0E0,1.668936E-2,0E0,0E0],"parents":[2147483647,0,0,2,2],"right_children":[2,-1,4,-1,-1],"split_conditions":[5.9E0,-1.8601907E-2,5E0,3.0354507E-2,-6.8850005E-3],"split_indices":[0,0,2,0,0],"split_type":[0,0,0,0,0],"sum_hessian":[4.065098E0,1.3260235E0,2.7390745E0,1.1482847E0,1.5907898E0],"tree_param":{"num_deleted":"0","num_feature":"4","num_nodes":"5","size_leaf_vector":"1"}},{"base_weights":[1.2617719E-2,-2.4800451E-2,2.174175E-2],"categories":[],"categories_nodes":[],"categories_segments":[],"categories_sizes":[],"default_left":[0,0,0],"id":131,"left_children":[1,-1,-1],"loss_changes":[3.2469206E-2,0E0,0E0],"parents":[2147483647,0,0],"right_children":[2,-1,-1],"split_conditions":[6E0,-2.4800451E-2,2.174175E-2],"split_indices":[0,0,0],"split_type":[0,0,0],"sum_hessian":[3.6425683E0,1.2582885E0,2.3842797E0],"tree_param":{"num_deleted":"0","num_feature":"4","num_nodes":"3","size_leaf_vector":"1"}},{"base_weights":[-3.1139702E-2],"categories":[],"categories_nodes":[],"categories_segments":[],"categories_sizes":[],"default_left":[0],"id":132,"left_children":[-1],"loss_changes":[0E0],"parents":[2147483647],"right_children":[-1],"split_conditions":[-9.3419105E-3],"split_indices":[0],"split_type":[0],"sum_hessian":[1.3040739E0],"tree_param":{"num_deleted":"0","num_feature":"4","num_nodes":"1","size_leaf_vector":"1"}},{"base_weights":[4.249602E-3,4.156924E-2,-2.116829E-2,-1.2950126E-2,2.581341E-2],"categories":[],"categories_nodes":[],"categories_segments":[],"categories_sizes":[],"default_left":[0,0,0,0,0],"id":133,"left_children":[1,3,-1,-1,-1],"loss_changes":[1.7007492E-2,1.8761132E-2,0E0,0E0,0E0],"parents":[2147483647,0,0,1,1],"right_children":[2,4,-1,-1,-1],"split_conditions":[1.8E0,5.7E0,-2.116829E-2,-1.2950126E-2,2.581341E-2],"split_indices":[3,0,0,0,0],"split_type":[0,0,0,0,0],"sum_hessian":[4.0411234E0,2.9925928E0,1.0485306E0,1.0401938E0,1.9523989E0],"tree_param":{"num_deleted":"0","num_feature":"4","num_nodes":"5","size_leaf_vector":"1"}},{"base_weights":[1.0895339E-2,-5.4756768E-2,3.2697655E-2,-5.438206E-3,-2.0066343E-2],"categories":[],"categories_nodes":[],"categories_segments":[],"categories_sizes":[],"default_left":[0,0,0,0,0],"id":134,"left_children":[1,3,-1,-1,-1],"loss_changes":[3.5715424E-2,3.128238E-4,0E0,0E0,0E0],"parents":[2147483647,0,0,1,1],"right_children":[2,4,-1,-1,-1],"split_conditions":[1.8E0,1.6E0,3.2697655E-2,-5.438206E-3,-2.0066343E-2],"split_indices":[3,3,0,0,0],"split_type":[0,0,0,0,0],"sum_hessian":[3.6189666E0,2.4326828E0,1.1862837E0,1.2257755E0,1.2069074E0],"tree_param":{"num_deleted":"0","num_feature":"4","num_nodes":"5","size_leaf_vector":"1"}},{"base_weights":[-2.8249962E-2],"categories":[],"categories_nodes":[],"categories_segments":[],"categories_sizes":[],"default_left":[0],"id":135,"left_children":[-1],"loss_changes":[0E0],"parents":[2147483647],"right_children":[-1],"split_conditions":[-8.474989E-3],"split_indices":[0],"split_type":[0],"sum_hessian":[1.2940056E0],"tree_param":{"num_deleted":"0","num_feature":"4","num_nodes":"1","size_leaf_vector":"1"}},{"base_weights":[2.4762214E-3,-1.8283108E-2,4.1681502E-2,3.0614378E-2,-7.226484E-3],"categories":[],"categories_nodes":[],"categories_segments":[],"categories_sizes":[],"default_left":[0,0,0,0,0],"id":136,"left_children":[1,-1,3,-1,-1],"loss_changes":[1.49976825E-2,0E0,1.7108757E-2,0E0,0E0],"parents":[2147483647,0,0,2,2],"right_children":[2,-1,4,-1,-1],"split_conditions":[5.9E0,-1.8283108E-2,5E0,3.0614378E-2,-7.226484E-3],"split_indices":[0,0,2,0,0],"split_type":[0,0,0,0,0],"sum_hessian":[4.0102487E0,1.3201877E0,2.690061E0,1.1150373E0,1.5750237E0],"tree_param":{"num_deleted":"0","num_feature":"4","num_nodes":"5","size_leaf_vector":"1"}},{"base_weights":[1.1426674E-2,-2.4924247E-2,2.1522824E-2],"categories":[],"categories_nodes":[],"categories_segments":[],"categories_sizes":[],"default_left":[0,0,0],"id":137,"left_children":[1,-1,-1],"loss_changes":[3.2100283E-2,0E0,0E0],"parents":[2147483647,0,0],"right_children":[2,-1,-1],"split_conditions":[6E0,-2.4924247E-2,2.1522824E-2],"split_indices":[0,0,0],"split_type":[0,0,0],"sum_hessian":[3.5856779E0,1.2498696E0,2.3358083E0],"tree_param":{"num_deleted":"0","num_feature":"4","num_nodes":"3","size_leaf_vector":"1"}},{"base_weights":[-2.8527757E-2],"categories":[],"categories_nodes":[],"categories_segments":[],"categories_sizes":[],"default_left":[0],"id":138,"left_children":[-1],"loss_changes":[0E0],"parents":[2147483647],"right_children":[-1],"split_conditions":[-8.558327E-3],"split_indices":[0],"split_type":[0],"sum_hessian":[1.2812243E0],"tree_param":{"num_deleted":"0","num_feature":"4","num_nodes":"1","size_leaf_vector":"1"}},{"base_weights":[4.060259E-3,-1.8129572E-2,4.3717884E-2,2.871671E-2,-4.7636493E-3],"categories":[],"categories_nodes":[],"categories_segments":[],"categories_sizes":[],"default_left":[0,0,0,0,0],"id":139,"left_children":[1,-1,3,-1,-1],"loss_changes":[1.5396188E-2,0E0,1.2888746E-2,0E0,0E0],"parents":[2147483647,0,0,2,2],"right_children":[2,-1,4,-1,-1],"split_conditions":[5.9E0,-1.8129572E-2,5E0,2.871671E-2,-4.7636493E-3],"split_indices":[0,0,2,0,0],"split_type":[0,0,0,0,0],"sum_hessian":[3.986786E0,1.3186026E0,2.6681836E0,1.1011469E0,1.5670366E0],"tree_param":{"num_deleted":"0","num_feature":"4","num_nodes":"5","size_leaf_vector":"1"}},{"base_weights":[9.825114E-3,-5.018871E-2,3.0237898E-2,-4.5866654E-3,-1.8732464E-2],"categories":[],"categories_nodes":[],"categories_segments":[],"categories_sizes":[],"default_left":[0,0,0,0,0],"id":140,"left_children":[1,3,-1,-1,-1],"loss_changes":[2.9967355E-2,5.063452E-4,0E0,0E0,0E0],"parents":[2147483647,0,0,1,1],"right_children":[2,4,-1,-1,-1],"split_conditions":[1.8E0,1.6E0,3.0237898E-2,-4.5866654E-3,-1.8732464E-2],"split_indices":[3,3,0,0,0],"split_type":[0,0,0,0,0],"sum_hessian":[3.5625896E0,2.4165866E0,1.1460029E0,1.2120582E0,1.2045286E0],"tree_param":{"num_deleted":"0","num_feature":"4","num_nodes":"5","size_leaf_vector":"1"}},{"base_weights":[-2.779049E-2],"categories":[],"categories_nodes":[],"categories_segments":[],"categories_sizes":[],"default_left":[0],"id":141,"left_children":[-1],"loss_changes":[0E0],"parents":[2147483647],"right_children":[-1],"split_conditions":[-8.3371475E-3],"split_indices":[0],"split_type":[0],"sum_hessian":[1.270542E0],"tree_param":{"num_deleted":"0","num_feature":"4","num_nodes":"1","size_leaf_vector":"1"}},{"base_weights":[3.7365889E-3,-1.7132515E-2,4.1340705E-2,2.7999217E-2,-5.1743574E-3],"categories":[],"categories_nodes":[],"categories_segments":[],"categories_sizes":[],"default_left":[0,0,0,0,0],"id":142,"left_children":[1,-1,3,-1,-1],"loss_changes":[1.3714317E-2,0E0,1.2718096E-2,0E0,0E0],"parents":[2147483647,0,0,2,2],"right_children":[2,-1,4,-1,-1],"split_conditions":[5.9E0,-1.7132515E-2,5E0,2.7999217E-2,-5.1743574E-3],"split_indices":[0,0,2,0,0],"split_type":[0,0,0,0,0],"sum_hessian":[3.962111E0,1.3152728E0,2.646838E0,1.0882062E0,1.5586319E0],"tree_param":{"num_deleted":"0","num_feature":"4","num_nodes":"5","size_leaf_vector":"1"}},{"base_weights":[9.817459E-3,-2.410987E-2,2.0358078E-2],"categories":[],"categories_nodes":[],"categories_segments":[],"categories_sizes":[],"default_left":[0,0,0],"id":143,"left_children":[1,-1,-1],"loss_changes":[2.9211875E-2,0E0,0E0],"parents":[2147483647,0,0],"right_children":[2,-1,-1],"split_conditions":[6E0,-2.410987E-2,2.0358078E-2],"split_indices":[0,0,0],"split_type":[0,0,0],"sum_hessian":[3.5387595E0,1.2351105E0,2.3036492E0],"tree_param":{"num_deleted":"0","num_feature":"4","num_nodes":"3","size_leaf_vector":"1"}},{"base_weights":[-2.8071428E-2],"categories":[],"categories_nodes":[],"categories_segments":[],"categories_sizes":[],"default_left":[0],"id":144,"left_children":[-1],"loss_changes":[0E0],"parents":[2147483647],"right_children":[-1],"split_conditions":[-8.4214285E-3],"split_indices":[0],"split_type":[0],"sum_hessian":[1.2590994E0],"tree_param":{"num_deleted":"0","num_feature":"4","num_nodes":"1","size_leaf_vector":"1"}},{"base_weights":[5.04275E-3,-1.7035699E-2,4.309343E-2,2.6282828E-2,-2.9993183E-3],"categories":[],"categories_nodes":[],"categories_segments":[],"categories_sizes":[],"default_left":[0,0,0,0,0],"id":145,"left_children":[1,-1,3,-1,-1],"loss_changes":[1.40721E-2,0E0,9.448867E-3,0E0,0E0],"parents":[2147483647,0,0,2,2],"right_children":[2,-1,4,-1,-1],"split_conditions":[5.9E0,-1.7035699E-2,5E0,2.6282828E-2,-2.9993183E-3],"split_indices":[0,0,2,0,0],"split_type":[0,0,0,0,0],"sum_hessian":[3.9413183E0,1.3139374E0,2.6273808E0,1.0754583E0,1.5519226E0],"tree_param":{"num_deleted":"0","num_feature":"4","num_nodes":"5","size_leaf_vector":"1"}},{"base_weights":[8.521351E-3,-5.1995777E-2,3.0490924E-2,-4.8863143E-3,-1.9171445E-2],"categories":[],"categories_nodes":[],"categories_segments":[],"categories_sizes":[],"default_left":[0,0,0,0,0],"id":146,"left_children":[1,3,-1,-1,-1],"loss_changes":[3.0743614E-2,4.0491764E-4,0E0,0E0,0E0],"parents":[2147483647,0,0,1,1],"right_children":[2,4,-1,-1,-1],"split_conditions":[1.8E0,1.6E0,3.0490924E-2,-4.8863143E-3,-1.9171445E-2],"split_indices":[3,3,0,0,0],"split_type":[0,0,0,0,0],"sum_hessian":[3.5179586E0,2.39985E0,1.1181087E0,1.1923583E0,1.2074918E0],"tree_param":{"num_deleted":"0","num_feature":"4","num_nodes":"5","size_leaf_vector":"1"}},{"base_weights":[-2.737024E-2],"categories":[],"categories_nodes":[],"categories_segments":[],"categories_sizes":[],"default_left":[0],"id":147,"left_children":[-1],"loss_changes":[0E0],"parents":[2147483647],"right_children":[-1],"split_conditions":[-8.2110725E-3],"split_indices":[0],"split_type":[0],"sum_hessian":[1.249428E0],"tree_param":{"num_deleted":"0","num_feature":"4","num_nodes":"1","size_leaf_vector":"1"}},{"base_weights":[4.526126E-3,1.7301746E-2,-3.7790295E-2,-3.4756884E-2,1.6437216E-2],"categories":[],"categories_nodes":[],"categories_segments":[],"categories_sizes":[],"default_left":[0,0,0,0,0],"id":148,"left_children":[1,-1,3,-1,-1],"loss_changes":[1.3241872E-2,0E0,3.0506238E-2,0E0,0E0],"parents":[2147483647,0,0,2,2],"right_children":[2,-1,4,-1,-1],"split_conditions":[2.8E0,1.7301746E-2,1.7E0,-3.4756884E-2,1.6437216E-2],"split_indices":[1,0,3,0,0],"split_type":[0,0,0,0,0],"sum_hessian":[3.9188933E0,1.5762948E0,2.3425987E0,1.1345345E0,1.2080642E0],"tree_param":{"num_deleted":"0","num_feature":"4","num_nodes":"5","size_leaf_vector":"1"}},{"base_weights":[8.7427255E-3,-4.9074076E-2,2.9370327E-2,